baseline/conv2d/kernel:0
(5, 5, 3, 6)
[[[[ 0.02611785 -0.00140236 -0.0725846  -0.11377139  0.07469325
     0.01188261]
   [ 0.08153015  0.04745378  0.05600993  0.19367498 -0.05364251
    -0.10563772]
   [ 0.18627524 -0.14414512  0.06652933  0.01028649 -0.07513031
     0.15881152]]

  [[ 0.00609162  0.16979921 -0.0922621  -0.18492962 -0.04172178
    -0.0516785 ]
   [ 0.12127132  0.19394886 -0.08286887  0.28440875  0.17487365
     0.0695772 ]
   [ 0.29021084 -0.01211328  0.39615646  0.20444058  0.11810687
    -0.08061262]]

  [[-0.01218036 -0.21981378  0.04309051  0.12790294  0.14484273
     0.02779345]
   [ 0.0173561  -0.03696448 -0.03770193  0.05238265 -0.03718193
     0.10399175]
   [ 0.06100454 -0.04420161  0.38748708  0.14576072  0.08974952
    -0.07502671]]

  [[-0.15250015 -0.14279714  0.05765596  0.0360677   0.11317576
    -0.18008626]
   [-0.03601604 -0.23264423 -0.11222075 -0.01926978 -0.15826155
     0.02881963]
   [ 0.02681141 -0.11777204  0.27926683 -0.01194709 -0.09648498
    -0.11056849]]

  [[ 0.05575452 -0.13472627 -0.0046895  -0.06375573  0.00540368
     0.16494155]
   [-0.2848807   0.03621274 -0.02769814  0.13702688 -0.09345267
     0.01020326]
   [-0.27612624 -0.04988063  0.20087188  0.01913939  0.0660141
     0.01677752]]]


 [[[-0.19313358  0.20780486  0.05195714 -0.2201167  -0.12751567
     0.04350759]
   [-0.06277728 -0.01010955 -0.07332759  0.00324818 -0.20182863
    -0.21360579]
   [ 0.15073815 -0.05813295  0.20543794  0.10239229 -0.27584264
     0.07082874]]

  [[-0.09511455 -0.05649129 -0.29751417 -0.31684858 -0.08786378
     0.10554316]
   [ 0.33680397  0.2148395   0.17478079 -0.00719373 -0.06160739
     0.12876134]
   [ 0.25640976 -0.0636923   0.25041863  0.11907201  0.07971208
    -0.03741529]]

  [[-0.14086363 -0.08938406 -0.2119537  -0.12190577  0.09898458
     0.04145001]
   [ 0.13216132 -0.16739741 -0.07062505 -0.17585737  0.18901373
     0.18360871]
   [ 0.23907186  0.04035531  0.4410219   0.06704655  0.10085458
     0.03761183]]

  [[-0.03760361 -0.3353399  -0.2119504  -0.22334613 -0.00161709
    -0.2918286 ]
   [-0.17675461 -0.11434252 -0.08778396 -0.11159892  0.06286268
    -0.23692077]
   [ 0.18208641  0.09237091  0.4201577   0.17253482  0.13942945
    -0.313255  ]]

  [[ 0.03272206 -0.06261527 -0.21166596 -0.25185308 -0.02153469
     0.08835293]
   [-0.15336536  0.08343554  0.07329292 -0.01236156  0.06507603
     0.13640223]
   [-0.1805643   0.26749817  0.2246441   0.0409373  -0.12507331
     0.23492756]]]


 [[[-0.15803018  0.19071163 -0.06484286 -0.10494986  0.02908807
    -0.18885413]
   [-0.11233316  0.09072589  0.04445349 -0.21848103  0.08752304
    -0.2513418 ]
   [ 0.17730284 -0.05938466  0.01504189 -0.04418451 -0.03945665
    -0.04925833]]

  [[ 0.07932613 -0.14285439 -0.13768652 -0.34767225 -0.14624938
     0.10048632]
   [ 0.12210923  0.12400139 -0.09000866 -0.0667169  -0.2897609
     0.13280694]
   [ 0.24458201  0.23708414  0.17078248 -0.0934997  -0.37676117
     0.16002035]]

  [[ 0.21193016 -0.383221   -0.26170653 -0.10818412 -0.03528105
     0.22942324]
   [ 0.03416935 -0.13018897 -0.11687008 -0.15103905  0.080585
     0.18095553]
   [ 0.1109771   0.13286835  0.17871194 -0.19543423 -0.23186375
     0.24418   ]]

  [[ 0.02276918 -0.30523652 -0.09186462 -0.01025806  0.23204516
    -0.31380096]
   [-0.00870421 -0.03861553 -0.02122151 -0.15766065 -0.06146279
    -0.20807688]
   [ 0.10933822  0.0036956  -0.07507875 -0.2740821   0.20257895
    -0.26274645]]

  [[-0.15513307 -0.00611039 -0.07036612  0.04765719  0.04792611
     0.20673883]
   [-0.288535    0.14478563  0.05775206 -0.04234368  0.10733609
     0.1011228 ]
   [-0.00105699  0.29132292  0.01653185  0.02186238  0.17546384
    -0.03777537]]]


 [[[ 0.02919424  0.11746977 -0.07390599  0.22074352  0.21901362
     0.15585513]
   [ 0.06146237 -0.0160476  -0.0328303   0.10208369  0.03655174
     0.05213373]
   [-0.26393378 -0.05507097 -0.22989014  0.06595196  0.22783059
     0.03276013]]

  [[ 0.11505587  0.01078441  0.06398459  0.16479363  0.11829698
    -0.16990243]
   [-0.0460554   0.01162813 -0.06340422  0.08159381 -0.14038785
    -0.1044665 ]
   [ 0.22124901 -0.06000165  0.00122201  0.15868713 -0.01945725
    -0.114311  ]]

  [[ 0.05315088 -0.14749582 -0.00920012  0.52339727 -0.15127295
    -0.06439698]
   [ 0.03778692 -0.13832991  0.07955865  0.01401043 -0.3075546
     0.21164371]
   [ 0.16956377 -0.02999151 -0.06205638  0.15067218 -0.23943499
    -0.08776151]]

  [[ 0.06338751 -0.04350098 -0.01024018  0.33239952  0.09024428
     0.11459576]
   [-0.122372   -0.25714833  0.07081888  0.00899564 -0.14023195
     0.10675681]
   [ 0.16791523  0.01586478 -0.02191197  0.0631067  -0.14971231
     0.14682104]]

  [[-0.01195447 -0.0140516  -0.09326682  0.19698071  0.19733304
    -0.03139974]
   [-0.0601659  -0.00530605 -0.04928213  0.05840889  0.14181219
    -0.20668162]
   [-0.09637254  0.2294046   0.16202955  0.16113904  0.08973198
     0.0193121 ]]]


 [[[ 0.2709648   0.23097487  0.02998408  0.15047386 -0.1263449
     0.07859378]
   [-0.19701867  0.10613756  0.06707231  0.09878051  0.14898148
    -0.05074171]
   [-0.2736862  -0.03382634 -0.30243465 -0.18484233  0.3033342
     0.12210775]]

  [[ 0.3467779  -0.10502394 -0.01789064 -0.05041005 -0.04632302
    -0.18599199]
   [-0.01051894 -0.03066219  0.04640836 -0.13000615  0.13572918
     0.06753415]
   [-0.20903918  0.08560928  0.09515642 -0.04332731  0.2888251
    -0.00409998]]

  [[ 0.3045581   0.07657026 -0.03646341  0.14334244  0.1652035
    -0.18868236]
   [-0.06390463 -0.23514612 -0.00079341 -0.04279358 -0.06196432
    -0.08114734]
   [-0.02306788 -0.10345774 -0.24077645 -0.04325821 -0.03454638
    -0.16930921]]

  [[ 0.17175914 -0.08417964 -0.00191321  0.12431731 -0.24075477
     0.21255809]
   [-0.02378043 -0.16067189 -0.15648736 -0.13413486 -0.2619113
     0.2823853 ]
   [-0.0497405   0.10182101 -0.13611668 -0.24874043 -0.1160979
     0.2569284 ]]

  [[ 0.1482219   0.26894212 -0.18143553  0.10405246 -0.10502803
     0.02360742]
   [-0.16809888 -0.06370898 -0.1360829  -0.12254409 -0.28789422
    -0.1594441 ]
   [-0.26922926  0.16961671 -0.03156038  0.05050737 -0.05395178
    -0.16566575]]]]
baseline/conv2d/bias:0
(6,)
[ 0.05927862  0.03385445 -0.04353166  0.16186239  0.02894554  0.05703882]
baseline/batch_normalization/gamma:0
(6,)
[0.60682654 0.6419391  0.5965853  0.86274797 0.8646461  0.59294516]
baseline/batch_normalization/beta:0
(6,)
[-0.22538395 -0.23474194 -0.14157286 -0.46243265 -0.57660884 -0.09419163]
baseline/dense/kernel:0
(1536, 128)
[[ 2.72412561e-02 -3.88714634e-02 -4.15229090e-02 -4.31653559e-02
   2.94451788e-02 -6.16959073e-02 -5.84433116e-02 -6.36848109e-03
  -4.12119105e-02  1.30821556e-01  4.60917652e-02  9.94588658e-02
   7.97043741e-03  3.34588438e-03 -1.45975471e-01  3.85940634e-02
   4.30998951e-02 -3.78759243e-02 -6.78691417e-02 -7.51378536e-02
  -8.77529457e-02 -1.31908879e-02 -1.45534560e-01  1.33227900e-01
  -8.04363266e-02 -2.53382288e-02  1.23925984e-01 -5.89532368e-02
  -5.90101071e-03 -1.03377430e-02 -3.57933976e-02  3.52874100e-02
   3.03438306e-02 -1.42600954e-01  5.72585315e-03 -7.10326880e-02
  -1.39568383e-02 -8.61416906e-02  7.93121010e-02 -4.34972458e-02
   1.32252276e-03 -8.98817778e-02 -9.59067047e-02  2.01149136e-02
  -6.10998534e-02  1.96856521e-02 -4.89714630e-02  4.09838967e-02
   1.04513466e-01 -5.88112213e-02  4.22767438e-02 -1.07619688e-02
  -2.34421063e-02  3.96365449e-02  5.81900738e-02 -3.18125747e-02
   3.31136063e-02 -9.04810335e-03 -7.01622292e-03 -2.30222531e-02
   7.97245558e-03 -9.64871943e-02  1.10428609e-01  3.14731412e-02
  -3.70363775e-03  4.91860732e-02  3.43101472e-01 -5.40345721e-02
   6.12129383e-02  1.67521924e-01 -3.88564497e-01  6.49011731e-02
  -1.10240458e-02 -3.13325152e-02 -1.99569613e-02  7.43565187e-02
  -7.51115158e-02  5.45315221e-02 -3.10640007e-01 -1.81414019e-02
   5.94963878e-03  6.84690848e-02 -7.76635185e-02 -7.90287480e-02
   4.98637483e-02 -4.20467481e-02  3.36481147e-02  4.32539284e-02
  -1.31314509e-02 -1.76549843e-03 -1.18469419e-02  2.30051554e-03
  -7.76597559e-02 -4.25249599e-02 -3.95292863e-02 -1.47857098e-02
   1.27472207e-02 -2.71674935e-02  8.67405832e-02 -8.19053128e-02
  -1.33243173e-01  1.51614975e-02 -5.36617152e-02  2.30342522e-02
   8.76746923e-02  5.66682890e-02  5.50987199e-02 -3.41448896e-02
  -5.10900989e-02 -5.26093170e-02 -2.35197823e-02  9.91861243e-03
   3.01950276e-02 -4.82988022e-02 -7.28729591e-02  5.93666127e-03
  -4.34285402e-02  4.45713922e-02 -3.06384325e-01  1.70095277e-03
  -1.88415274e-01  2.47419849e-01  1.33994836e-02 -5.93269896e-03
  -2.74790078e-01 -8.42382908e-02 -1.84698433e-01 -1.34108271e-02]
 [-2.70802490e-02 -5.48818819e-02  3.00149154e-03 -8.66522864e-02
  -4.89696413e-02 -1.01577498e-01 -8.26866925e-02 -6.47713020e-02
  -1.01523921e-01 -9.94969625e-04 -9.27199144e-03  6.45181909e-02
  -1.07662894e-01  6.43081078e-03  2.39238013e-02 -4.79855612e-02
  -8.32797512e-02 -1.43200401e-02  1.30645156e-01  1.92759768e-03
  -1.03174940e-01 -5.26441410e-02  9.13332775e-02  7.00475127e-02
  -4.89017107e-02 -6.14389703e-02  1.29647821e-01 -3.51212248e-02
  -6.32868931e-02  3.74809019e-02  2.38991771e-02  5.25150709e-02
  -2.02399176e-02  1.05625734e-01  5.67521974e-02  7.90329650e-03
   3.08162235e-02 -3.55441449e-03  3.35876122e-02 -2.11211741e-02
  -4.20340225e-02  1.28407255e-02 -1.04785264e-01 -1.05522359e-02
   2.39597075e-02  3.73210944e-02  3.84295173e-02 -1.39836892e-01
  -8.07310641e-02 -6.53617904e-02 -7.05805700e-03  1.29044876e-02
   2.11532507e-02 -6.30379915e-02 -1.44924805e-01  1.69099778e-01
  -2.86365245e-02 -5.89478165e-02 -6.61968663e-02 -1.34057431e-02
  -1.90388169e-02  1.77527517e-01  7.26958364e-02 -3.18859816e-02
  -2.94576567e-02 -3.85464914e-02 -1.60381980e-02 -9.73139629e-02
   2.63324678e-02 -1.82457436e-02  8.97579081e-03 -2.18110412e-01
  -4.83469442e-02 -1.73793733e-02  2.72508748e-02 -6.41446039e-02
   2.80158371e-02 -1.14699468e-01 -1.76276714e-01  3.36029232e-02
   3.19757387e-02  5.12821153e-02  8.71510804e-02  9.05832052e-02
  -5.10533378e-02  5.75209334e-02 -4.47166152e-03 -4.93722223e-02
   1.55418739e-01 -3.43757286e-03  4.08980437e-02 -1.54852197e-01
  -5.21058105e-02 -3.83760929e-02 -1.45229474e-02 -7.69801140e-02
  -3.63105536e-02 -1.17152999e-03  1.65042400e-01 -7.96282850e-03
   1.99906111e-01  8.41826480e-03 -9.91413556e-03 -5.13411872e-02
   1.77517696e-03  2.84862909e-02 -1.21298879e-02  2.23340448e-02
  -1.57361299e-01 -3.49362269e-02 -1.54000940e-02  3.60748954e-02
  -5.93600003e-03  7.59472400e-02 -4.44858670e-02 -4.06141840e-02
  -3.48886959e-02  4.94917594e-02  5.60656190e-02  9.06540900e-02
   3.51859815e-02  3.89710404e-02  2.65929624e-02 -7.25724734e-03
   1.49223447e-01  3.15170246e-03  7.91405067e-02 -4.39947210e-02]
 [-7.18783075e-03 -5.33799524e-04 -2.56386101e-02  4.69536381e-03
  -4.44222614e-02  1.12064499e-02  3.07668056e-02 -6.74897358e-02
   3.32068242e-02  7.30047226e-02  1.44625343e-02 -4.21789885e-01
  -1.84445173e-01  5.59332334e-02 -4.37326431e-02 -2.43430138e-02
   3.75875644e-02  1.21932710e-02  1.87730864e-02 -3.14684585e-02
   2.36702174e-01 -2.36276053e-02  8.87343884e-02 -3.18194091e-01
   4.37446497e-02  5.18499762e-02 -1.86958849e-01  8.99738632e-03
  -3.05853505e-02  4.33401316e-02 -6.19454198e-02 -5.93144037e-02
  -1.76298637e-02  8.40027630e-02 -4.38134298e-02  5.12746461e-02
   4.43216674e-02  4.12716940e-02  1.92612901e-01  2.17945203e-02
   4.39292267e-02  5.25482409e-02  4.90086898e-02  4.49193977e-02
  -1.93289518e-01  2.44009659e-01  7.61915520e-02 -3.31954896e-01
   2.22368948e-02 -1.43300416e-02  1.27550978e-02  1.98753849e-02
  -5.76047637e-02 -2.65230406e-02 -1.12133577e-01 -5.94958961e-02
   2.64765695e-02  1.55898007e-02 -2.05408912e-02 -1.55390175e-02
  -2.93731131e-02 -2.83735484e-01 -3.47479820e-01 -1.08822505e-03
  -1.99546162e-02 -2.13185549e-02  4.81319390e-02 -2.64910352e-03
  -2.09180806e-02 -3.38790387e-01 -1.78850815e-01  1.21351391e-01
  -1.81860432e-01  5.21455556e-02 -9.43048969e-02 -7.02553764e-02
   2.88733840e-02 -9.56755802e-02  5.50523922e-02 -4.08217050e-02
  -3.64989303e-02 -1.48843899e-01 -8.82366765e-03 -1.85822248e-01
  -2.19886135e-02  2.98353657e-02 -9.80295517e-05 -7.15383515e-02
   2.94094712e-01  3.89294475e-02 -4.87890933e-03  2.82779168e-02
   9.24383476e-03  6.63422048e-02  2.71967892e-02  2.09964924e-02
  -5.95944514e-03  1.63959805e-02 -3.59759748e-01 -1.67690460e-02
  -4.62568611e-01 -7.84741808e-03  3.53617184e-02 -2.36017071e-02
   1.36073828e-01 -4.08320539e-02 -1.71069317e-02  5.83436480e-03
   3.35538536e-01  4.24436443e-02 -2.57104076e-02 -1.43074002e-02
  -2.57625431e-02  5.46980463e-02  3.85178477e-02 -4.53569973e-03
  -7.49191642e-03 -5.24691284e-01  1.72515243e-01  6.73547089e-02
   7.08113099e-03 -2.39616260e-01 -4.04773233e-03  1.21612186e-02
   6.67595416e-02 -4.83459681e-02  2.24131271e-01  5.20621473e-03]
 [ 2.19194349e-02 -5.28196385e-03  2.25496124e-02 -3.82449408e-03
   4.26992308e-03  4.02761400e-02  4.31093015e-02 -7.75764138e-02
  -6.87280158e-03  2.01886564e-01 -1.73650477e-02  1.03932120e-01
   3.02024409e-02  3.08344513e-02  1.07616760e-01 -2.59343605e-03
   4.53509688e-02 -6.24489132e-03 -2.61640130e-03 -1.28258273e-01
   1.36509582e-01 -9.22203064e-02  7.28446320e-02  3.78218442e-02
   2.31410619e-02 -3.30859460e-02 -1.51725814e-01  1.31715953e-01
   4.41672318e-02 -2.49942746e-02 -5.79144619e-02 -8.68456513e-02
  -4.42534536e-02  4.25978005e-02  1.89772211e-02 -7.61345625e-02
  -5.90128526e-02  2.22923476e-02 -1.64846867e-01  1.79228056e-02
  -4.01178524e-02 -5.37794195e-02  5.87855205e-02 -5.77913895e-02
   1.78716928e-02 -5.86062074e-02 -3.91448624e-02 -5.90782892e-03
  -4.24810015e-02 -2.69031897e-02  1.85114965e-02 -3.79666947e-02
   2.80854460e-02  3.26485559e-02  9.00461823e-02 -9.59582850e-02
  -2.78232410e-03  3.56592014e-02  2.39825528e-02 -9.16884914e-02
   4.23833467e-02 -4.07603942e-02  3.69613394e-02  5.87849761e-04
  -4.36815955e-02 -1.16559919e-02  2.73306251e-01 -1.45410048e-02
  -1.86621997e-04 -1.36854788e-02 -1.54335322e-02 -3.88726033e-02
   8.88184533e-02  1.20440707e-01 -2.25149142e-03  2.78836578e-01
   1.70213263e-02 -8.58590156e-02  6.38076337e-03 -1.05814366e-02
  -4.85946201e-02 -2.12945715e-02 -4.60640993e-03 -2.59927869e-01
  -4.22687195e-02 -3.40840518e-02  3.54768243e-03 -1.48964382e-03
   1.39756158e-01 -4.51086648e-02 -3.47917005e-02  1.22290194e-01
   3.97628732e-02 -5.50132059e-02 -3.69294211e-02 -4.47815396e-02
  -1.94197167e-02  1.23133482e-02 -1.02974974e-01  3.02744173e-02
  -1.27346009e-01 -4.30261418e-02 -7.03206733e-02 -5.46501316e-02
   1.78032834e-02  5.19136479e-03  4.89926450e-02  1.59687102e-02
   7.87424892e-02  2.54814345e-02 -9.73547399e-02 -3.46226171e-02
   1.42857824e-02  3.69125116e-03 -8.44056532e-02 -5.83710708e-02
  -1.39746480e-02 -9.20384228e-02 -1.24558592e-02 -5.49631789e-02
  -8.26584995e-02 -4.48374031e-03  3.68482918e-02 -1.51716452e-02
  -7.84805939e-02 -7.83492625e-02 -3.67506556e-02 -6.28848895e-02]
 [ 3.23820300e-02  2.39336099e-02 -2.24951860e-02 -9.99430753e-03
  -3.99262682e-02  2.08280683e-01 -9.91606526e-03 -4.56752516e-02
  -6.45517260e-02  7.82752037e-03 -6.01634160e-02 -4.89708669e-02
   4.86470968e-01 -6.89024031e-02  1.32571042e-01 -1.20624281e-01
   1.91808194e-02 -3.06192413e-03  1.00284182e-01 -4.56959754e-02
  -2.42827073e-01 -1.05219632e-02  9.48108584e-02  2.42522061e-01
  -1.65516008e-02 -3.55921835e-02 -1.60320848e-02  2.34007627e-01
  -2.79393457e-02 -1.55012375e-02 -1.22633129e-02 -3.59968767e-02
  -6.16589747e-02 -1.33993268e-01 -1.96819082e-02 -1.90594029e-02
  -5.25066592e-02 -3.87625284e-02  5.15230931e-02 -3.58622638e-04
  -2.06683651e-02 -3.90364137e-03 -5.19055352e-02 -7.54386634e-02
   5.08032814e-02 -2.47677118e-01 -1.97183266e-01 -3.99995223e-02
  -2.20125131e-02 -2.99777500e-02 -4.87563722e-02 -5.07422574e-02
  -5.75644970e-02 -3.06293629e-02  1.49403438e-01  2.08322018e-01
   5.06357104e-03  3.35734338e-02  1.56493690e-02 -4.63690870e-02
   1.20443115e-02 -1.03619635e-01  2.22643524e-01 -6.78484514e-02
   5.51950466e-03  2.79221479e-02  9.10116434e-02  5.22343591e-02
   2.37053573e-01 -2.77596414e-01 -1.48067296e-01 -6.88155442e-02
   1.83773831e-01 -1.31632328e-01 -6.50328696e-02  4.17633951e-02
   6.18743710e-02  3.19358297e-02 -1.42137423e-01  4.71458323e-02
   1.64283402e-02  2.37900645e-01 -4.28991541e-02  4.08952348e-02
   2.77191196e-02  1.16835095e-01 -8.10013153e-03  4.87098098e-02
  -7.24703893e-02 -5.65568842e-02 -4.23658453e-02 -1.73702657e-01
  -1.77596673e-01 -5.56528755e-02  7.41515309e-03 -1.15834717e-02
   1.21637560e-04  2.08813939e-02 -1.05185889e-01 -3.92401777e-02
  -8.00983608e-02  8.78301114e-02  5.86487958e-03  5.43403476e-02
  -6.03516757e-01  2.38003638e-02 -1.87162478e-02  3.34976502e-02
   1.84544548e-01 -3.83180566e-02  7.56228417e-02 -2.92223487e-02
  -1.32213831e-02 -2.21648937e-04  2.95562074e-02 -3.65591678e-03
  -4.85815331e-02 -2.16166779e-01 -8.89407843e-02 -4.24075387e-02
   9.30927768e-02  1.43779628e-02  1.92420511e-03 -1.14455279e-02
   1.43280718e-04 -8.02256390e-02  9.77687240e-02 -4.90518799e-03]
 [-3.29004265e-02 -2.18569133e-02 -4.12019007e-02  2.07171962e-03
  -6.62636608e-02  1.10329371e-02  2.68300474e-02 -6.02321476e-02
  -1.06400251e-01  6.28364831e-03  4.76572243e-03  1.79782674e-01
   6.25817701e-02 -2.75670849e-02 -7.20742419e-02  1.65047690e-01
   3.73006947e-02  4.09617871e-02  2.46388791e-03 -6.21960498e-02
   4.55328710e-02 -5.05385809e-02  5.54043315e-02  2.13133451e-02
   1.84718594e-02 -4.52794582e-02 -4.53747138e-02  1.51694519e-02
  -4.28524092e-02  1.13682440e-02  2.73647327e-02 -5.63692972e-02
  -2.92212586e-03  3.53823043e-02 -2.72546187e-02 -1.63723249e-02
  -4.63578068e-02  6.59617828e-03 -5.45051368e-03 -6.09547533e-02
   3.24468128e-02  1.42722037e-02  6.72921985e-02 -5.64020239e-02
   1.64539233e-01  6.94995821e-02 -1.97207462e-03  5.59819676e-02
   5.15348874e-02 -2.50809211e-02 -1.63794924e-02 -5.33576645e-02
  -7.14223981e-02 -2.72237770e-02  7.68160224e-02 -2.15847373e-01
   1.36547126e-02 -3.86846997e-02  5.40693337e-03 -2.13823114e-02
   1.18357949e-02 -5.46514476e-03  1.02183081e-01 -7.45744035e-02
  -3.68932001e-02 -2.98872553e-02  1.37460709e-01 -6.41443580e-02
   7.67384917e-02 -2.94978768e-02 -1.31663606e-01 -2.68746261e-03
   1.39927402e-01  1.27792090e-01 -4.52886187e-02  1.08689740e-02
   2.39797588e-02  1.21563427e-01  7.90532865e-03 -8.66737030e-03
  -5.61217219e-02  1.72696915e-02  7.86619708e-02 -1.23738430e-01
  -3.11002713e-02  2.38572359e-02  2.14590272e-03  3.12220380e-02
  -3.46304849e-02 -3.15304399e-02 -7.97725022e-02  7.93421119e-02
   1.64348006e-01 -9.20415819e-02 -1.78457256e-02 -5.75817004e-02
   4.27087158e-04  4.86794300e-02 -1.68182909e-01  7.85136595e-03
  -1.76741585e-01 -5.37552126e-02 -9.66661945e-02 -4.34161350e-02
   5.47325909e-02 -2.27265563e-02 -5.79849863e-03 -4.95970733e-02
   7.58677423e-02 -5.31853065e-02 -1.13282681e-01 -8.27334728e-03
   1.89685710e-02 -3.02858334e-02  1.25887781e-01  2.61021182e-02
  -6.24583848e-02  1.96096569e-01 -8.41685310e-02 -4.70988676e-02
  -4.23593745e-02  6.66343421e-02 -8.63076448e-02  2.45492207e-03
  -4.38959263e-02 -5.23495302e-02 -1.18471775e-02 -2.46323962e-02]
 [-3.07041872e-02  3.29927355e-02 -8.55797157e-02 -5.52140884e-02
  -2.88316980e-03  2.80553494e-02 -1.66113756e-03 -1.74947120e-02
   2.78570838e-02  1.09089047e-01 -2.27269009e-02 -3.33648115e-01
  -2.94441938e-01 -1.54865198e-02 -8.92746374e-02  8.28167647e-02
   4.13528979e-02 -6.82143262e-03 -1.35949865e-01 -3.18466462e-02
  -3.06790292e-01  2.59161741e-03 -2.52677649e-01  2.31280029e-02
  -8.92278701e-02  5.19985482e-02  1.97510138e-01  9.68071222e-02
   2.82990411e-02 -4.13301364e-02  2.58000065e-02 -6.55657351e-02
   2.75851376e-02 -1.57165319e-01  4.92930040e-02 -8.58334973e-02
  -8.99341702e-02  4.35627764e-03  3.77823338e-02 -5.31658866e-02
  -3.15357894e-02  7.23930448e-03 -2.33257096e-03 -4.44271713e-02
  -1.32514790e-01  8.81467108e-03  2.11057544e-01  2.73399889e-01
   2.04863995e-01  4.82134447e-02 -2.06657723e-02  1.50759146e-03
  -6.99751601e-02  1.33962333e-02  1.60896063e-01 -3.44821572e-01
  -5.08604124e-02 -7.32290745e-02  3.41352746e-02 -5.07596098e-02
  -2.25040317e-02  1.90540284e-01 -7.59563819e-02  2.90404409e-02
   3.20257694e-02 -5.20614833e-02  1.63700655e-01  5.89209795e-03
   9.47276503e-03  1.67050555e-01 -6.05445765e-02  2.04805240e-01
  -3.71577084e-01 -2.13658944e-01 -4.71990220e-02  1.90203503e-01
  -2.21420098e-02 -2.92725176e-01 -4.55421686e-01  1.73682207e-03
   3.48146260e-03 -1.24134757e-02  2.89547313e-02  8.39085132e-02
  -5.68552613e-02 -1.57200620e-01  2.67761108e-02  4.73675784e-03
   4.07813936e-02 -9.92845744e-04 -3.80900800e-02  1.05176233e-01
   9.16064680e-02 -3.30336466e-02 -3.72459218e-02 -3.29347402e-02
   4.82382476e-02  8.60417858e-02  2.29407907e-01  7.50009576e-03
   1.21910967e-01 -7.10412040e-02 -2.48558857e-02 -2.94010863e-02
  -1.35428339e-01  5.28829321e-02  2.50149146e-02 -6.28882572e-02
  -1.65161744e-01 -3.64897363e-02 -7.35556036e-02 -2.55864002e-02
   2.74506286e-02 -6.03338517e-02 -4.38531041e-02 -6.90345187e-04
   9.79134813e-03 -6.00146353e-01 -3.02639723e-01  1.07610479e-01
  -1.64586172e-01  3.88695598e-02  3.90255190e-02  4.59245183e-02
  -1.70945331e-01 -1.04640402e-01 -3.28700691e-01  3.78896925e-03]
 [-4.68556732e-02  3.83315347e-02  3.77032384e-02 -4.96563427e-02
  -3.11458427e-02 -5.36735617e-02  1.18232025e-02 -1.76111925e-02
  -3.63088772e-03 -3.29567343e-02 -2.96866912e-02  5.08702137e-02
   5.42848073e-02  4.13493775e-02 -4.99776490e-02  4.32250798e-02
  -1.57787427e-02 -5.55582270e-02 -6.53543919e-02 -4.80653830e-02
   2.55476572e-02 -4.81716432e-02  1.16580918e-01  8.38441998e-02
  -3.09935343e-02 -7.27414489e-02  7.22423429e-03  3.85701805e-02
   1.10577019e-02  1.74092297e-02 -3.18976194e-02 -6.28226474e-02
   2.06000712e-02 -2.54171807e-02 -5.30130677e-02 -2.74533276e-02
  -1.50517363e-03  3.64630437e-03 -7.85876662e-02 -4.16430682e-02
   5.14672436e-02 -1.15338722e-02 -5.11894263e-02 -4.46133874e-02
   1.33361802e-01  9.54764113e-02  3.24315466e-02  1.65158939e-02
   1.28848758e-02  1.60887819e-02 -4.90157679e-03 -5.32394610e-02
  -4.52760868e-02  2.88942177e-02  9.82676223e-02  6.05922937e-02
  -4.26493771e-02  4.24607955e-02 -7.39416853e-02 -5.93081377e-02
  -4.54608425e-02  1.11389704e-01 -5.19710174e-03 -4.07833199e-04
  -5.32680340e-02 -6.77280650e-02 -4.04158421e-02  2.19458919e-02
   5.13335913e-02 -3.33802472e-03  4.62028347e-02 -1.03270575e-01
   8.36940035e-02  4.62833308e-02  2.41391063e-02 -5.21578416e-02
  -8.72331932e-02  4.35196608e-02  1.55361488e-01 -2.33878870e-03
  -1.51597746e-02  6.51160181e-02  1.63773242e-02  1.08291924e-01
  -6.30065948e-02  5.07045165e-02 -4.20766659e-02  2.00921558e-02
  -7.47842267e-02  4.63004038e-03 -4.44239937e-04  1.84960924e-02
  -4.20896187e-02 -4.74280752e-02 -6.96522966e-02  4.59628459e-03
   1.60957631e-02 -5.11556007e-02  1.23094022e-01  2.93993228e-03
  -6.96477816e-02 -2.54458133e-02 -2.75516277e-03 -3.26440744e-02
  -1.53897107e-02 -1.93854030e-02 -4.90704551e-02  2.20257919e-02
   1.98445078e-02 -5.31306826e-02 -1.10831140e-02 -8.50712433e-02
  -8.73483252e-03 -1.00528680e-01 -1.35236764e-02  3.40756625e-02
  -8.08925852e-02  8.79896879e-02  1.34700328e-01 -8.90474468e-02
  -8.43470097e-02 -9.06372152e-04  1.96998864e-02 -9.36754346e-02
   1.08412802e-01 -4.67160083e-02  1.14677854e-01  1.80559382e-02]
 [ 1.25654861e-02 -2.77581327e-02  2.03575864e-02  1.76887587e-02
  -4.45227362e-02  1.37723014e-02  9.50131740e-04 -4.96752299e-02
  -1.35207502e-03  1.83654144e-01  2.07986385e-02 -1.82208836e-01
   9.97064710e-02 -1.61347203e-02  2.25793526e-01 -6.39621317e-02
   1.59367621e-02  2.72151129e-03  4.07273062e-02 -5.27413711e-02
   1.93188414e-01  2.32213959e-02 -6.04713112e-02 -1.52738884e-01
   3.35819796e-02 -5.26695848e-02 -4.21166420e-01 -2.80131772e-02
  -3.00983749e-02 -1.95854474e-02  3.19556855e-02 -7.94626400e-02
   1.93275809e-02  2.99172074e-01 -2.77176276e-02  1.57336965e-02
  -9.39626247e-04  1.68104656e-02 -1.24419197e-01 -3.01828310e-02
   1.80669129e-02  2.09278241e-02 -1.78466514e-02  4.67171818e-02
  -1.70241594e-01  1.83720484e-01  3.88349108e-02 -1.21679731e-01
  -1.55369297e-01  2.27942262e-02 -6.77778199e-02 -3.19357514e-02
  -2.26483699e-02 -5.21378070e-02 -1.21298954e-02  1.84608065e-02
   2.83988416e-02 -1.91909950e-02 -8.81240889e-03  1.15043968e-02
  -4.08176519e-02 -2.19331533e-01 -3.17322701e-01 -6.02133572e-03
  -1.14878118e-02  2.74590552e-02 -2.28964370e-02  4.89777252e-02
   3.80112119e-02 -2.79181421e-01 -2.38644436e-01  4.69038859e-02
  -1.24284243e-02  1.64349094e-01 -2.72530597e-02 -3.71952504e-02
   3.05227935e-02 -9.06348974e-03  2.01392978e-01 -3.78868356e-02
  -4.26487848e-02 -1.82355437e-02 -1.23985358e-01 -2.52930492e-01
   2.64696032e-03  5.06487451e-02 -1.60630513e-02 -1.34381801e-02
   1.57568604e-01 -3.97868641e-02  7.17783580e-03 -1.23894483e-01
  -4.83660661e-02 -2.70266533e-02  2.76843980e-02  3.67069766e-02
   5.10918945e-02  2.41744071e-02 -3.85621965e-01 -2.50853761e-03
  -3.83806914e-01  4.02398407e-03  6.06068596e-02  3.80955264e-02
  -3.65777835e-02 -1.92271285e-02  5.44289872e-02 -1.01691484e-02
   9.64172650e-05 -5.19198328e-02  9.00039598e-02 -7.17337430e-03
   1.38468742e-02  4.59295847e-02  1.11183792e-01 -4.84003089e-02
  -4.63361442e-02 -3.42648715e-01  9.74397212e-02 -2.82881185e-02
   1.24430798e-01 -1.30310804e-01 -1.61192864e-02 -2.99297124e-02
   1.13554761e-01 -4.84787636e-02  2.69821454e-02  4.07494158e-02]
 [ 1.11926654e-02 -7.80100450e-02 -2.90161427e-02  1.72919314e-02
  -6.13105223e-02  5.94228134e-02  6.99357092e-02 -3.92692760e-02
  -1.24010481e-01  3.02154776e-02 -1.98612306e-02  2.47949213e-02
  -7.05741122e-02 -6.75296560e-02  3.19825411e-02 -2.39872318e-02
  -5.29295690e-02  5.84115973e-03  2.52303376e-04 -8.87524411e-02
   3.43377627e-02 -4.55583371e-02  1.24498017e-01 -6.82000518e-02
  -1.26661872e-02 -1.27338096e-02 -6.16409071e-02  2.93134004e-02
  -3.57201062e-02 -6.48728292e-03 -4.65123616e-02 -4.19551646e-03
  -6.80499747e-02  5.86276390e-02 -1.84864760e-03 -6.65178075e-02
   3.47701497e-02  3.74087840e-02 -8.66131634e-02 -1.37465345e-02
   1.36976698e-02 -2.23009624e-02  4.69878204e-02  1.08174719e-02
  -4.15628627e-02 -2.43312970e-01 -5.89721352e-02  1.06549703e-01
  -1.18898183e-01  3.04185245e-02 -5.33784404e-02  3.43812518e-02
   1.85556374e-02 -2.04624850e-02  1.14025429e-01  1.01210669e-01
  -7.24378647e-03 -2.44335439e-02  1.92912202e-02 -2.09012125e-02
   9.02198628e-03  8.10364783e-02 -8.96194354e-02 -4.51832376e-02
   1.97109878e-02 -7.72538828e-03 -7.15920329e-02  2.51059560e-03
  -1.15344174e-01 -1.58315673e-01  8.25529695e-02 -8.89079571e-02
   4.24075350e-02  7.68550485e-02  7.46747153e-03  4.27172817e-02
  -7.80062601e-02 -1.70989931e-01 -5.21815233e-02 -4.86230701e-02
  -6.14749342e-02 -2.79003121e-02 -1.19047603e-02 -1.48796488e-03
   1.66869611e-02 -6.18880503e-02 -5.70612252e-02  4.94915023e-02
   8.96415189e-02  1.83134060e-02 -3.09218299e-02  1.48540601e-01
  -1.18782103e-01  2.77938917e-02  2.62884721e-02 -2.15208344e-02
  -4.78642024e-02 -2.98522618e-02  3.15326191e-02 -3.25965583e-02
   1.13237746e-01 -8.87985528e-02 -2.43460387e-02 -6.25445545e-02
  -2.87831221e-02  2.13293713e-02 -2.19022874e-02  8.48284364e-03
   2.24417970e-02 -5.31065166e-02 -3.71114165e-02 -8.10569301e-02
   2.87357774e-02 -3.64626907e-02 -1.29601853e-02  8.78313836e-03
   1.59610063e-02 -9.25162435e-02  5.37678637e-02  3.82744484e-02
   2.57650092e-02 -6.99231848e-02  1.75326131e-02  2.64883470e-02
  -2.68406440e-02 -5.29186204e-02 -8.60052258e-02  2.05785800e-02]
 [ 6.05869144e-02  3.04545555e-02 -1.96673945e-02 -9.10121351e-02
   4.91090901e-02  1.38116434e-01  1.22232363e-03  4.59932685e-02
  -6.07663132e-02 -1.64384216e-01  4.73370478e-02 -7.90367186e-01
   1.62993804e-01  2.87046134e-02  1.85810030e-01 -5.17224148e-03
  -4.72698659e-02  8.67647082e-02  6.01476245e-02  1.56374685e-02
  -2.59787142e-01 -1.66594218e-02 -2.53594011e-01 -1.66568980e-01
   3.49707119e-02 -4.51608412e-02 -6.50626197e-02  2.08129764e-01
  -6.06192015e-02 -5.62371463e-02  2.47648880e-02  1.29111242e-02
   3.99606564e-04  2.88226426e-01  1.52567623e-03 -1.34373412e-01
   5.24327867e-02 -1.20794475e-02  1.77148774e-01 -1.48860225e-02
  -6.94525754e-03  1.17620230e-02 -1.09632298e-01  1.21777561e-02
   1.18493915e-01 -2.61863787e-02 -8.17828849e-02 -1.96085289e-01
  -2.84534812e-01 -1.38185984e-02 -2.83191650e-04  5.93351573e-03
  -2.89579183e-02  1.74441263e-02 -1.76017493e-01  9.40662399e-02
  -3.60980704e-02  1.97949749e-03  2.50056107e-02 -5.57115152e-02
   1.68952141e-02  2.23755673e-01 -1.10546932e-01  2.33403705e-02
   1.27365990e-02 -1.31243030e-02  9.07228664e-02 -1.64662395e-02
   1.28471991e-03 -2.57870071e-02  1.08055443e-01  2.15810612e-01
   1.15882233e-01 -3.65024239e-01 -1.20753922e-01  4.54724021e-02
   4.57362784e-03 -2.68568825e-02 -2.95797400e-02  7.61091337e-03
  -8.99290964e-02  3.42316955e-01 -1.59125831e-02  3.95088904e-02
   3.86006571e-02 -1.16204530e-01 -2.47856807e-02  7.33728483e-02
  -3.41840610e-02  6.41287351e-03 -3.63198929e-02 -3.50621700e-01
  -9.84708294e-02  2.43020104e-03 -1.92442164e-02 -7.36811608e-02
  -5.47272004e-02  6.64474163e-03  1.81827880e-02  5.33812121e-02
   1.53157830e-01 -9.20051988e-03  8.27408675e-03  3.47603261e-02
  -7.70069733e-02  2.85401922e-02 -5.25657050e-02 -5.78989312e-02
  -3.43376070e-01 -3.74588966e-02  5.81675954e-02 -1.39254024e-02
  -2.34197583e-02  9.91652068e-03  2.07560435e-01  3.86450216e-02
  -8.91180411e-02 -7.45895207e-02  3.04687828e-01  7.60093704e-02
   2.16073487e-02 -3.13882351e-01  1.46545600e-02  6.51930273e-03
  -2.72072628e-02 -3.53519619e-02  1.84868246e-01 -5.84401563e-02]
 [-2.63471734e-02  6.29484057e-02  2.38856710e-02  7.50344014e-03
   2.59953458e-02 -7.26281255e-02 -2.78606601e-02 -8.13862234e-02
   8.75498354e-02 -3.09244078e-02 -2.80719697e-02 -2.73743182e-01
  -3.81279103e-02 -4.26959842e-02  2.06529886e-01 -1.09234162e-01
  -5.79565056e-02 -7.03438967e-02 -1.45020679e-01 -3.82441431e-02
   1.18065827e-01  2.75506061e-02 -4.05872166e-02  1.64380491e-01
  -6.57168105e-02 -4.01580594e-02  5.10932505e-02  1.45441890e-01
   2.94248629e-02  4.83041592e-02 -6.03853390e-02 -6.71742260e-02
   1.19323786e-02 -3.98544073e-02  4.45182994e-02  6.39468373e-04
  -6.46209344e-02 -3.18883210e-02  6.10142900e-03 -2.41648592e-02
  -3.02846730e-02 -2.82792412e-02 -1.53432684e-02 -1.68417189e-02
   7.47981593e-02 -9.21659321e-02  3.35451625e-02  2.27119386e-01
   4.83015776e-02  2.92634889e-02  3.55659388e-02 -2.20953971e-02
   8.04557279e-03 -1.97527651e-02  2.32515991e-01  5.66267855e-02
  -5.61975874e-02 -4.00675312e-02  4.40167375e-02 -3.89350541e-02
   3.54236737e-02  1.24141164e-01  1.34771481e-01 -5.51259182e-02
   1.35683976e-02 -4.50699888e-02  2.99422890e-02 -1.52080599e-02
  -2.21090361e-01 -4.95966412e-02  8.26805308e-02  2.06756845e-01
  -4.01939303e-02 -3.96179482e-02 -7.91547894e-02 -1.12132914e-01
  -6.05505286e-03 -1.68212399e-01  9.86845195e-02  2.29966938e-02
  -2.46128961e-02  1.07321046e-01  7.16848373e-02  1.88799590e-01
  -2.13373769e-02 -4.71753292e-02  5.13667911e-02 -2.21820665e-03
   2.46691750e-03 -3.17919292e-02  4.14785445e-02 -6.71146587e-02
  -9.52441618e-03  3.30932140e-02  8.12661182e-03  7.87998661e-02
   3.65673974e-02 -6.10685069e-03  1.36902541e-01  3.22266179e-03
   9.40017924e-02 -7.23831505e-02 -1.96619499e-02 -6.31729886e-02
  -3.57374310e-01 -2.45109741e-02  7.84901250e-03 -2.76725069e-02
   1.57336727e-01  4.45651226e-02 -2.96692401e-02 -5.62853776e-02
  -5.04385717e-02 -1.09389704e-03  1.42130852e-01  4.75507416e-02
  -2.92595532e-02 -1.91606119e-01 -1.61894083e-01  1.10826917e-01
   6.66398406e-02 -1.14252381e-01  2.65968051e-02 -1.68343559e-02
  -5.09796664e-05  3.80894095e-02 -9.49535146e-02 -3.73293869e-02]
 [ 1.56366043e-02  5.85144870e-02 -4.83985022e-02  8.38451758e-02
  -4.70023556e-03  1.70997474e-02 -1.76381916e-02  3.45292676e-04
  -7.28345960e-02  2.02515423e-02  5.38887829e-02 -1.50249332e-01
  -2.46848881e-01 -5.21454252e-02 -2.98993498e-01 -9.87311825e-02
   1.57948770e-02 -3.07228751e-02 -1.13971576e-01  1.32738557e-02
  -1.63495123e-01  1.14145204e-02 -1.79157555e-01 -2.68117804e-02
  -5.52930497e-02  1.87635385e-02  2.04566479e-01 -2.77107991e-02
   4.57571000e-02 -2.71273106e-02  8.21593776e-03 -2.25721020e-03
  -7.85993636e-02 -2.27079064e-01  1.84039250e-02 -6.39031350e-04
   1.95796397e-02  1.55344605e-02  2.29286030e-01 -2.63329390e-02
  -9.92031023e-03  6.54727072e-02  4.30030599e-02 -8.49710125e-03
  -9.64383855e-02 -5.58790639e-02  2.11244181e-01 -1.97207332e-02
   1.33457348e-01 -6.20306619e-02 -1.62338067e-04  5.44440374e-02
  -2.58655362e-02 -3.15131694e-02  1.52231053e-01 -2.69417949e-02
  -2.35906355e-02  1.52794307e-03 -2.75543164e-02 -3.61963883e-02
  -8.79490748e-02  8.85961112e-03 -1.20821968e-01 -1.62840355e-02
  -5.43420427e-02 -6.36195764e-02  3.50204647e-01  9.44988709e-03
  -5.84253250e-03 -7.25462884e-02 -2.03185052e-01  2.14831740e-01
  -1.42671466e-01 -8.77419040e-02 -2.02800080e-01  4.77949791e-02
  -1.29050687e-02 -2.55442429e-02 -3.86884093e-01  2.28561852e-02
  -2.95314100e-02 -3.12419105e-02 -1.41954303e-01  2.95633703e-01
  -4.35748920e-02 -3.16284783e-02  7.72947297e-02  2.04436593e-02
   1.00032538e-01  2.78597269e-02 -8.37657601e-02 -1.51176095e-01
  -1.13449290e-01  5.90490215e-02 -4.88050953e-02 -3.49709578e-02
  -4.83272672e-02  2.28396449e-02 -3.87987774e-03 -1.57795884e-02
  -6.96003139e-02 -2.59663556e-02 -2.49705799e-02  4.84113321e-02
  -7.16292933e-02 -2.84000002e-02 -2.95168497e-02 -4.82537746e-02
  -2.28126749e-01 -3.51968668e-02 -5.29952953e-03  1.46532375e-02
  -3.27991471e-02  2.61161923e-02 -3.45470160e-01 -5.69432788e-03
  -2.57053003e-02 -3.23425770e-01 -2.04535171e-01  8.55716020e-02
  -7.57892579e-02  1.40345404e-02 -5.29447570e-02  7.97708891e-03
  -4.48171869e-02 -6.42967299e-02 -1.09825186e-01 -3.17346044e-02]
 [-4.22973093e-03 -8.69549229e-04 -6.87823892e-02 -3.59690338e-02
   2.94102225e-02 -4.61644083e-02 -1.81911942e-02  7.89740030e-03
  -2.40319371e-02  2.31183022e-02  3.10873780e-02  1.00716397e-01
   4.61992808e-02 -1.19867651e-02  1.16711423e-01  7.38288229e-03
   1.25321131e-02 -1.91274863e-02  1.72872115e-02  7.35410163e-03
   1.32184520e-01  3.95946614e-02  2.23014340e-01  1.72347240e-02
  -7.54928067e-02 -7.80967698e-02  5.34077659e-02 -2.47949902e-02
   2.11383998e-02 -3.47394757e-02  2.92694066e-02  9.38697252e-03
  -2.59534325e-02  6.06432222e-02  5.20617589e-02 -1.94040742e-02
  -1.09492028e-02  2.17504743e-02 -5.81289269e-03  2.25702953e-02
   4.66385065e-03 -1.98034141e-02 -5.56105822e-02  2.41794754e-02
   1.52621374e-01  7.39870826e-03 -3.16541865e-02 -3.80265736e-03
  -4.50286316e-03  7.45968744e-02 -6.97967634e-02  3.17280069e-02
  -5.98083958e-02 -2.43889471e-03  5.44255041e-02  2.44714525e-02
  -5.72207272e-02 -5.54855913e-02 -9.56109688e-02 -6.49579838e-02
  -6.22832067e-02  4.68389541e-02  1.26562878e-01 -8.86759013e-02
  -2.19864082e-02 -1.69938263e-02 -1.22782961e-01  3.80538665e-02
   7.10665733e-02 -1.79464724e-02  1.86462682e-02 -5.67805655e-02
   1.10878266e-01  3.64044607e-02  1.05633914e-01 -8.34493935e-02
  -4.54083458e-02  5.78393787e-03  3.73626277e-02 -6.88025951e-02
  -1.85338687e-02  7.11234659e-02  6.39868677e-02  7.97772482e-02
  -4.49626185e-02  8.34042728e-02 -9.07966942e-02  1.65020261e-04
   5.61298206e-02 -2.35986076e-02 -7.75568560e-02 -7.66466781e-02
  -2.36095712e-02 -6.77320436e-02 -4.63434868e-02 -7.69991577e-02
  -6.79789260e-02 -7.37929018e-03  1.02766372e-01 -4.51140553e-02
  -3.51500325e-02 -5.16721047e-02 -5.86192906e-02  1.28617520e-02
   8.17710627e-03 -5.92627749e-02 -4.98998463e-02 -3.66548523e-02
   3.23678665e-02 -3.36713530e-02 -5.36525287e-02  1.04952855e-02
  -5.93668371e-02 -1.34273935e-02 -5.23026427e-03 -3.26057114e-02
  -4.82862592e-02  1.54865950e-01  5.29321097e-02  1.02546560e-02
   4.78992686e-02  1.75880436e-02 -5.97496815e-02  9.59905051e-03
   5.44354727e-04 -1.59986056e-02 -4.95481491e-02 -6.62218779e-02]
 [ 4.76550758e-02  1.87863186e-02 -1.60736460e-02 -5.87854087e-02
  -3.61824334e-02  1.74247324e-02  6.19360171e-02  4.64835614e-02
   2.06220383e-03  2.05514282e-01  2.93700583e-02 -2.74013788e-01
   2.78720915e-01  1.20413005e-02 -5.15563320e-03  7.72416070e-02
  -5.91838807e-02 -1.02860117e-02 -2.24567372e-02 -6.62986934e-02
   2.47442529e-01  4.93724495e-02 -6.10203035e-02 -1.69573426e-01
   1.04841121e-01 -9.04197618e-03 -3.79095703e-01  3.39771807e-02
  -1.66059285e-03 -3.87413129e-02  1.81211326e-02 -5.57732433e-02
  -6.27728105e-02  1.03795521e-01 -3.62289324e-03  1.11241788e-02
  -2.13100910e-02  1.55353835e-02 -1.96632341e-01 -3.94094437e-02
  -1.53113455e-02  5.12717962e-02  3.96030396e-03 -1.10336244e-02
  -3.31216902e-01 -4.02298570e-02  4.72233556e-02 -3.02932248e-03
  -4.74981889e-02 -3.36879976e-02 -4.92073633e-02  5.92426658e-02
  -3.45485583e-02 -2.45930515e-02 -1.65785383e-02 -9.77155864e-02
   1.69662088e-02 -3.75937968e-02 -1.32995099e-02 -4.26215529e-02
  -3.08170095e-02 -3.07493478e-01 -1.62701443e-01 -5.78467697e-02
  -5.21316193e-02 -2.89033279e-02  1.60219967e-02  4.61265668e-02
  -1.97994381e-01 -1.99354127e-01 -2.11339742e-01 -7.93085843e-02
  -1.05277926e-04  2.21550599e-01 -1.39182746e-01  3.36145163e-02
   8.39168280e-02  2.30363794e-02  3.11652154e-01  4.35376465e-02
   4.75695059e-02  3.51717174e-02 -6.26931190e-02 -1.79156110e-01
  -3.48057076e-02  4.10240181e-02  2.47704680e-03  6.30070269e-02
   1.08805105e-01 -7.31637841e-03  2.11833230e-06 -4.31138265e-04
   2.61410559e-03 -2.44650245e-03 -4.20655683e-02 -4.41035926e-02
  -4.18558046e-02  3.91916633e-02 -3.38941664e-01 -3.50072235e-02
  -3.61033946e-01  8.26485157e-02 -8.87095183e-03  3.26239616e-02
   1.57251388e-01 -5.31080700e-02 -1.49158649e-02  1.76430661e-02
   1.11114666e-01 -3.78022040e-03  4.66364995e-03  3.94052193e-02
   5.52936792e-02 -8.12242366e-03  6.66859373e-02  3.21069211e-02
   2.92753130e-02 -1.00870624e-01  1.35164738e-01  8.02395269e-02
   1.15283601e-01 -1.86312452e-01  3.08784712e-02 -3.63054536e-02
   2.01730002e-02 -3.51237506e-02 -9.86041948e-02  3.86943445e-02]
 [-2.76752338e-02  2.83096246e-02 -3.10688112e-02  1.54128401e-02
   3.16621959e-02  1.38455052e-02  6.45775795e-02 -4.06126007e-02
  -1.30000070e-01  9.99385938e-02 -7.18447641e-02  6.62859008e-02
  -9.10024345e-02 -3.88232134e-02  5.11601306e-02  2.65037678e-02
  -1.62127428e-02 -1.73852500e-02  1.84244048e-02 -4.51325960e-02
   1.40708254e-03 -2.53874604e-02  9.47781652e-02 -2.56656166e-02
   6.09324221e-03 -1.90910324e-02 -7.48982430e-02  9.18959305e-02
  -5.77489249e-02 -2.54382426e-03  5.26856594e-02 -4.99359742e-02
  -1.33905830e-02  3.80849428e-02  3.25800702e-02  1.70172174e-02
  -4.49208096e-02  1.53208468e-02 -9.14097484e-03  1.11043332e-02
  -3.07154227e-02  2.64176205e-02  7.48705268e-02  4.71624061e-02
   8.05184618e-02 -1.20480724e-01 -4.72135283e-02  5.07826023e-02
  -1.02983296e-01  3.65759544e-02 -3.37771177e-02 -6.62143901e-02
   5.12252785e-02 -1.45412590e-02  3.97028886e-02  2.32310742e-02
  -2.56634876e-03 -1.78384595e-02  2.52763387e-02 -7.87056386e-02
  -9.26303305e-03  3.93752232e-02 -8.23397860e-02 -5.24842367e-03
  -3.54834311e-02  3.32158841e-02 -3.11775729e-02 -4.30685319e-02
  -3.56762521e-02 -9.69026089e-02  1.00760996e-01 -4.47268263e-02
   5.22074997e-02  1.10390112e-01  2.77945362e-02  1.18839487e-01
  -3.99611816e-02 -1.43717319e-01 -1.38036609e-01  2.07816251e-02
   1.22864218e-02  4.69012894e-02 -3.02694030e-02 -1.87319085e-01
  -2.55000889e-02  2.60257851e-02 -3.70627046e-02  2.74169259e-03
   1.16246924e-01  3.67996842e-02 -5.35949580e-02  6.25486374e-02
  -9.23199952e-02 -7.52206743e-02  1.68906525e-02 -2.27294602e-02
  -2.05187704e-02 -2.14376077e-02 -1.05682127e-01  4.51101223e-03
   7.81055763e-02 -2.83425655e-02 -1.79968756e-02 -5.78100346e-02
  -1.13643564e-01 -1.40664848e-02 -4.98627685e-02  2.52643805e-02
  -1.60916019e-02  8.41320958e-03  1.99878737e-02 -6.53614998e-02
  -2.05876287e-02  5.12151197e-02 -5.92645705e-02 -3.93935340e-03
   3.22567932e-02 -2.10120186e-01  9.88313034e-02  4.42330353e-02
  -1.86934054e-01 -6.84266686e-02 -4.26498204e-02 -5.29906303e-02
  -7.39087313e-02  1.70552228e-02  4.40264829e-02  4.15076464e-02]
 [-2.00152732e-02  5.05589359e-02 -1.87847763e-02 -3.95167843e-02
   2.61886995e-02 -3.07529401e-02  3.32931355e-02 -7.36417342e-03
  -4.37357426e-02 -2.31183752e-01 -1.29117547e-02 -7.03244925e-01
  -8.29327572e-03 -5.19545227e-02  6.47481903e-02  5.04573509e-02
   1.86662246e-02 -5.11069372e-02 -3.58000472e-02 -4.26461622e-02
   7.18637258e-02 -7.26174712e-02 -7.97856450e-02 -7.97887519e-02
  -6.59292638e-02 -4.80496846e-02 -1.99580535e-01  3.55682462e-01
   2.24233996e-02  1.47215612e-02 -5.40964231e-02  3.84751568e-03
  -2.18813829e-02  1.21104673e-01 -3.58982794e-02 -4.99408618e-02
   4.15445641e-02 -3.73545438e-02  8.42188299e-02 -1.34136016e-02
   5.45839779e-03  4.63554226e-02  6.84033856e-02  3.63073684e-02
   1.76027343e-01 -8.25169235e-02 -1.87379718e-01 -8.65010023e-02
  -2.22207695e-01 -2.14852970e-02 -4.49045300e-02 -5.65896332e-02
   3.31314164e-03 -5.81917167e-03 -3.61984789e-01 -1.63013130e-01
  -1.01555707e-02  3.63885164e-02 -6.90113008e-02  8.11909977e-03
   5.09110047e-03 -2.35280711e-02  1.59799337e-01 -4.74673808e-02
  -2.16804557e-02  6.79936111e-02 -1.09898619e-01 -2.87366807e-02
  -2.90996611e-01  5.53114451e-02  7.66949132e-02  2.06416056e-01
  -2.54388116e-02 -1.61657244e-01 -7.46745244e-02  2.59146355e-02
  -2.89962608e-02 -2.85065591e-01  5.86163476e-02  2.00521201e-02
  -4.98317294e-02  1.60142541e-01  4.39020172e-02  1.28701432e-02
  -1.29300179e-02 -1.84456166e-02 -4.53955270e-02 -2.56043263e-02
   1.01064563e-01 -6.13103807e-02 -3.21893618e-02 -4.55953836e-01
  -1.04850329e-01  6.43183105e-03 -1.56759080e-02  1.73082557e-02
   1.23785362e-02 -6.12812079e-02 -5.05159982e-02 -6.29533157e-02
   1.94934849e-02  6.94156364e-02  4.13681008e-02  3.06814015e-02
  -1.47241667e-01  2.82375049e-02 -1.14286104e-02  3.02900467e-02
  -2.04912454e-01 -1.24454731e-02  7.60676665e-03  4.22911067e-03
  -2.87832189e-02  1.64482519e-02  2.49501124e-01  1.41174085e-02
   2.62599085e-02 -2.21140496e-02  9.99316350e-02  1.36447936e-01
   1.35429785e-01 -1.09766603e-01 -2.09551435e-02 -1.64193437e-02
  -3.44032608e-02 -4.71217558e-02 -2.87331611e-01  7.64551526e-03]
 [ 1.79251526e-02  1.47591112e-02  1.02957515e-02  3.12227178e-02
  -4.59245779e-02 -6.78029582e-02 -8.94557983e-02  3.92192751e-02
  -3.08596566e-02  2.26030573e-01 -6.64157793e-02 -2.48700887e-01
  -2.76307762e-01 -4.88417558e-02  1.10761777e-01 -2.16197595e-01
   5.58969378e-03  2.50610039e-02  1.27102450e-01 -4.53697853e-02
   1.60560265e-01 -8.76360480e-03  4.38889535e-03 -1.71400622e-01
   1.80412941e-02 -1.77145861e-02  4.06528041e-02  1.10248990e-01
  -6.27188161e-02 -2.18262225e-02 -2.64471043e-02  1.93017665e-02
   1.17878038e-02  2.46109709e-01  1.27641503e-02 -2.09026486e-02
   8.38969834e-03  2.90203877e-02  2.53197938e-01 -2.40608174e-02
   4.27045710e-02 -5.90644851e-02 -3.65513824e-02 -2.07980014e-02
   1.96431443e-01  2.91058600e-01  1.25365794e-01 -1.41063398e-02
  -1.79195106e-01 -5.56768216e-02  4.84636985e-02  3.07365470e-02
   2.35704184e-02 -3.28175426e-02 -9.78424996e-02 -2.23523989e-01
  -4.46035378e-02 -3.48630063e-02 -1.22530209e-02 -2.85393950e-02
   5.38567966e-03  1.35825142e-01 -7.26346895e-02 -1.27191404e-02
   2.11015195e-02  3.81561997e-03 -2.64008297e-03  1.25687206e-02
  -1.85400415e-02  9.23897699e-02  4.29981090e-02  7.01524317e-02
   5.71501069e-02 -2.45551005e-01 -1.81444362e-01 -2.28342161e-01
  -4.64203171e-02 -2.30102781e-02  2.52018515e-02  1.28414780e-02
   5.15670292e-02  1.04581922e-01 -2.99280491e-02  1.87445097e-02
   4.56085391e-02 -9.88844708e-02 -4.03897241e-02 -3.54002938e-02
  -3.46385576e-02 -5.75236008e-02 -1.43472403e-02 -1.87750652e-01
  -1.36432186e-01  2.04023812e-02 -1.14018284e-02 -7.44663253e-02
   6.53862068e-03 -5.71792088e-02  5.49815111e-02  2.98694111e-02
   1.00108989e-01  9.47684143e-03  4.59433198e-02 -5.56499623e-02
  -4.17701118e-02  7.39046326e-03 -3.64812575e-02  6.14823811e-02
  -7.54214004e-02 -5.36497459e-02  2.90841069e-02  4.58100699e-02
   4.51154262e-02 -4.26801853e-02  1.00357160e-01  1.90407019e-02
   1.19000031e-02 -7.48208612e-02  5.07109277e-02 -2.22599544e-02
  -2.43332759e-01  1.10145770e-02 -4.32846025e-02 -9.20640677e-03
   2.88853999e-02 -4.26864251e-02 -8.79765023e-03 -3.89503986e-02]
 [-5.07313386e-02  3.28453593e-02  4.45875488e-02  6.19201362e-02
  -4.35375907e-02 -4.77589015e-03  2.51060538e-02 -8.82842988e-02
  -9.09730643e-02 -8.37728977e-02 -4.42990661e-03 -1.05684213e-01
  -1.95456311e-01 -3.25804949e-03 -3.29366684e-01 -8.69757161e-02
  -2.23746710e-02 -5.80601394e-02 -1.26986951e-01 -4.33661304e-02
  -3.82259786e-01  5.26932329e-02  2.17776131e-02 -7.10993707e-02
  -4.99275252e-02  3.84392380e-03 -5.14054038e-02 -1.33487761e-01
  -3.28368768e-02 -1.13265133e-02  4.58733663e-02  6.14362583e-02
  -6.64772466e-02 -1.28143892e-01  1.33779645e-02 -1.14889455e-03
  -2.65507139e-02 -1.43137705e-02  2.73337066e-01 -5.65622188e-02
  -1.09401941e-02  2.58519854e-02 -9.56958532e-03  1.48153156e-02
  -1.84661508e-01 -3.79752740e-02  2.40664408e-01  4.38114367e-02
   1.35491312e-01  3.69925909e-02 -3.79727036e-02 -6.62808493e-03
  -8.51160660e-02 -5.62858917e-02  1.24184243e-01 -1.36457175e-01
   3.86548340e-02  3.98555435e-02  7.94730335e-03 -1.48702823e-02
   1.54586174e-02 -6.35410007e-03 -2.46335998e-01 -2.84423400e-02
  -2.15738459e-04  1.10783651e-02  1.24527231e-01  8.32312554e-03
   6.08207919e-02 -9.62643474e-02 -1.28797650e-01  1.07324056e-01
  -1.01517476e-01 -2.07941607e-01 -8.68451521e-02 -4.07737680e-02
  -2.41899025e-02 -2.07875893e-01 -3.47366542e-01 -2.87876520e-02
  -3.52990851e-02 -8.08823574e-03  3.46834809e-02  1.82245582e-01
   4.44311602e-03 -8.42262711e-03 -4.27148724e-03  1.96649283e-02
   9.31575224e-02  2.36061495e-02 -5.06471992e-02 -1.70608088e-01
  -4.03853729e-02 -3.70939225e-02 -3.15749869e-02 -4.89830486e-02
   4.11897376e-02  6.03080541e-02  1.43121168e-01  7.49684349e-02
  -9.16310325e-02 -4.58634235e-02 -4.02689241e-02 -5.95726334e-02
  -8.22849423e-02 -3.00646890e-02 -3.83986235e-02  2.19207183e-02
  -2.82511003e-02 -2.93677561e-02 -6.60074353e-02 -3.84759307e-02
  -2.76569277e-04 -2.51261722e-02  7.90306740e-03  1.17173120e-02
   4.09855284e-02 -3.86073768e-01 -6.94746822e-02  4.95146662e-02
  -1.88738555e-01  1.17620640e-01 -1.14489002e-02 -4.82651107e-02
  -2.80020908e-02  1.89739875e-02 -2.07507387e-01  2.83642262e-02]
 [ 3.91645841e-02 -3.32962982e-02 -4.35202457e-02  2.16382835e-02
   4.11046073e-02 -8.85531306e-03 -8.78002867e-03 -6.04272895e-02
   4.67197932e-02 -2.69246008e-02  1.11834230e-02  1.77049413e-01
   8.22633952e-02 -4.98727076e-02  1.61059633e-01  9.79524851e-03
  -1.40020000e-02 -1.62169375e-02  4.66180686e-03  3.21195051e-02
   1.12851672e-01  5.50826639e-03  1.00162156e-01  5.35268560e-02
  -6.39558583e-02  1.83181204e-02  6.03204481e-02  4.37241383e-02
   1.83118656e-02 -8.57309774e-02  3.42033035e-03  2.64022518e-02
  -6.03745021e-02  6.02556318e-02 -5.00527164e-03 -7.31848851e-02
  -4.35685553e-02 -4.90424642e-03 -4.07674015e-02 -6.07530624e-02
  -2.82937642e-02 -5.56079298e-03 -6.61376789e-02 -6.21390902e-02
   8.57319757e-02  4.12386768e-02  8.08112323e-02  1.16263650e-01
  -8.23394209e-02 -5.80222756e-02 -5.28090186e-02 -4.42490540e-02
   3.63047533e-02 -3.60073596e-02  1.25688717e-01  1.92382604e-01
   1.15775047e-02 -5.81763498e-02 -9.44300666e-02  2.56795790e-02
  -1.81445479e-02 -7.68921748e-02  4.45792153e-02 -2.76351832e-02
  -7.80514255e-02 -3.93155962e-02  6.34242967e-02  4.88683407e-04
   3.32164094e-02 -3.75545546e-02  5.53133339e-02 -1.36131540e-01
   7.43229780e-03  1.08305588e-01  2.77849473e-02 -9.75316390e-02
  -7.54686967e-02  5.59474574e-04  1.41439021e-01 -2.27337368e-02
  -4.14277948e-02  4.18674722e-02 -3.73750813e-02  8.48689005e-02
  -2.28481535e-02 -7.63249099e-02 -2.83032637e-02 -1.16436705e-02
  -5.23187742e-02 -6.47150204e-02 -1.10239517e-02 -5.16852085e-03
   4.41245288e-02 -6.40558526e-02 -8.29032287e-02 -5.97070791e-02
   1.98911149e-02 -4.03498206e-03  7.24445954e-02  1.24896821e-02
   2.50409218e-03 -7.09160566e-02 -9.64735672e-02 -6.10713065e-02
  -4.91281897e-02  3.68873328e-02 -4.38475981e-02 -1.81723461e-02
   3.34457085e-02 -7.68157765e-02  1.55541049e-02 -1.29182951e-03
  -1.60433091e-02 -1.85509324e-02 -6.17790073e-02  2.13216208e-02
   1.76645443e-02  6.36916980e-02  3.45974565e-02 -6.31409362e-02
  -5.57857268e-02  6.66370764e-02  9.64740850e-03 -6.56953231e-02
   1.87641919e-01 -1.47478040e-02  4.16981727e-02  1.68747418e-02]
 [-4.30444516e-02  4.57529202e-02 -2.36315420e-03  2.12129951e-03
   1.25705525e-02  4.01061326e-02 -2.09104419e-02 -1.18225813e-02
  -6.31435961e-02  2.64522702e-01 -5.59202991e-02 -2.10273623e-01
  -7.42433476e-04 -4.22071032e-02 -1.10131167e-01  3.31836231e-02
   1.42439753e-02 -3.66502372e-03  3.17384377e-02 -1.07347667e-02
   1.49971575e-01 -1.80706643e-02 -7.96147212e-02  2.12353542e-02
   5.10879457e-02 -5.75394072e-02 -3.57620269e-01  3.86357345e-02
   1.39000043e-02  3.89966508e-03  3.57254446e-02 -1.95652656e-02
   4.43363888e-03  2.91269273e-01 -6.37943670e-03  3.42446864e-02
   4.18276116e-02  3.43791619e-02 -1.76743358e-01  3.69327813e-02
  -5.20502180e-02  3.97336185e-02 -7.85347074e-03  4.53756601e-02
  -2.60442674e-01 -9.83609334e-02 -1.09237306e-01 -4.09109443e-02
  -8.84865075e-02 -2.13568099e-03 -4.46972959e-02  4.43972126e-02
   4.34678346e-02 -5.75749986e-02 -1.47854567e-01 -2.76895225e-01
   1.67410821e-02  4.19496112e-02  1.09716952e-02 -3.20010334e-02
  -2.59309486e-02 -3.74703884e-01 -1.19744912e-01  2.22685412e-02
   1.95240211e-02 -4.00945581e-02  1.22666337e-01  3.51266861e-02
  -1.89458042e-01 -2.17380852e-01 -2.38753837e-02 -1.76213324e-01
   1.55818477e-01  1.46549270e-01  4.70501930e-02  3.41621786e-02
   2.92948652e-02 -9.30083245e-02  3.94889742e-01  3.24296579e-02
   1.55797675e-02  1.10677578e-01 -8.77340063e-02 -2.18840405e-01
  -1.66229904e-04  5.61225228e-02  3.76074575e-02  2.36849263e-02
   1.78362370e-01  1.50111094e-02 -1.18118599e-02 -1.17945530e-01
  -5.91644533e-02  5.75274378e-02  2.44362429e-02  4.96633500e-02
  -3.66194919e-03 -4.02315035e-02 -3.65577370e-01 -7.03101456e-02
  -1.70956999e-01 -2.27031875e-02 -1.03651909e-02  5.45710400e-02
   1.77690983e-01 -1.12081282e-02  5.19940704e-02  2.40689125e-02
   6.20435886e-02 -1.90347694e-02  2.29697432e-02  1.47335008e-02
  -1.74430832e-02  5.24230972e-02  2.11187780e-01 -3.51469591e-02
   3.93176004e-02 -1.75181404e-01  3.29862177e-01  2.70851366e-02
   9.79033485e-02 -4.19393927e-01 -7.24698883e-03 -5.92923164e-02
  -2.52744585e-01 -4.33988720e-02  9.26475152e-02  3.27062085e-02]
 [ 3.33029367e-02 -1.05171800e-02 -1.78697538e-02 -1.15978788e-03
   3.75167094e-02  5.48988320e-02  8.61304402e-02 -5.09796627e-02
  -3.03546526e-02  2.12131739e-02 -8.85246973e-03  3.46488468e-02
  -1.38068810e-01 -2.79370509e-02 -4.48921286e-02  3.22545902e-03
   1.78576037e-02 -5.70928007e-02 -1.07334182e-01  8.69801827e-03
   4.01348434e-02 -1.59317106e-02  8.55349600e-02 -2.50756070e-02
  -2.73099374e-02 -4.03019600e-03 -1.88806936e-01  7.25258216e-02
   2.00672131e-02  4.17830423e-02 -4.85658646e-02  6.08181655e-02
  -6.20291829e-02  1.31260395e-01 -6.43103197e-02 -8.40807334e-02
  -4.52428311e-03 -1.92077942e-02  3.62179801e-02 -2.44888514e-02
  -3.16904299e-02 -3.70155722e-02  9.54946727e-02 -5.15577197e-03
  -1.13696270e-02  1.20066246e-02 -7.80341998e-02  3.36118676e-02
  -1.49942085e-01 -3.91010568e-02  1.91628803e-02 -4.38395478e-02
  -3.88036552e-03  3.24541819e-03 -1.78554747e-02 -1.16516896e-01
  -4.00435664e-02 -1.25945844e-02 -4.75450344e-02  3.89969978e-03
   8.66864342e-03  4.99149552e-03 -8.31920207e-02  2.59671398e-02
  -1.32723302e-02  1.00314606e-03 -1.66038498e-02  9.56293661e-03
  -2.49182552e-01 -4.75612655e-02  1.00773655e-01  5.54709062e-02
  -1.01857458e-03  7.69186914e-02  4.32590991e-02  1.30905539e-01
  -6.85560107e-02  1.37353297e-02 -1.27076387e-01 -4.34319563e-02
  -7.40215033e-02 -5.68844751e-02  9.91352946e-02 -2.08807305e-01
   1.34161729e-02  1.41317710e-01 -3.82374749e-02  3.31793190e-03
   4.11889404e-02 -4.53257514e-03  5.81509108e-03  6.94547966e-03
  -1.18799947e-01 -6.76615760e-02  1.84164976e-03 -1.11642726e-01
   4.95473556e-02  2.02977452e-02 -5.22205383e-02 -2.15660669e-02
   8.94108638e-02  1.39156161e-02  6.54140636e-02  4.30471823e-02
  -2.15268955e-01 -7.96844251e-03 -1.16857123e-02 -9.70974471e-03
   4.05434072e-02 -7.41856024e-02 -7.66803622e-02 -6.50844723e-02
  -5.86769283e-02 -9.34761763e-02 -1.37490975e-02 -5.69395348e-02
  -4.26078402e-02 -2.25165114e-01 -2.62262183e-03 -6.81379288e-02
  -6.85402378e-02 -2.50906423e-02  8.21674615e-03 -6.61919862e-02
  -7.34486654e-02 -3.27998251e-02  7.72697702e-02 -5.81491478e-02]
 [ 1.84055995e-02 -8.15181807e-02  3.34262028e-02 -3.86165418e-02
   1.08787473e-02  6.97111711e-02 -2.96873339e-02 -4.77575324e-02
  -5.40851913e-02 -1.84885617e-02 -5.21097519e-02 -5.40865362e-01
  -2.05580965e-01 -2.56775389e-03  5.34077063e-02 -1.85613587e-01
  -2.96412110e-02  3.06312107e-02  1.32963926e-01 -1.40645802e-02
   4.00792137e-02 -4.48286813e-03 -9.98832434e-02 -8.82245153e-02
  -7.03271925e-02  8.43928196e-03 -4.85733971e-02  1.86182652e-02
  -9.58084315e-03 -6.98964149e-02  3.22326384e-02  2.30630487e-02
  -2.48954706e-02  1.83220491e-01 -1.65957529e-02 -1.02931485e-01
   3.70184891e-03 -2.18353383e-02  8.10036287e-02  2.99998205e-02
  -3.31069306e-02  2.28095278e-02  1.52917325e-01 -1.57660525e-02
   1.92503512e-01  1.33446276e-01 -1.80166259e-01  9.06509813e-03
   2.15165634e-02 -2.40925234e-02  5.45966886e-02  1.40120909e-02
   6.01708740e-02  6.25548465e-03 -1.03599407e-01 -1.14330627e-01
   5.06132320e-02 -3.57870571e-02 -6.08173981e-02 -2.23965645e-02
  -2.88188388e-03 -1.04404867e-01 -1.14573404e-01 -3.82674532e-03
  -2.04168577e-02 -7.10258447e-03  1.89666539e-01  4.46802797e-03
  -3.26580793e-01 -2.33692974e-02  4.21031453e-02 -8.42497051e-02
   5.92701249e-02 -2.21391708e-01 -8.21448192e-02 -6.34456798e-02
   8.50456301e-03 -8.73918012e-02  1.28091693e-01 -6.60287309e-03
   1.07674049e-02 -1.22378364e-01 -1.17636390e-01 -6.46393523e-02
  -1.05707729e-02 -5.41278869e-02  1.18512390e-02  3.01638860e-02
  -1.22759594e-02  3.85887250e-02 -2.36195493e-02 -3.93713653e-01
  -1.35490209e-01 -1.02000842e-02 -1.00219073e-02  2.41051279e-02
  -2.80404836e-02  1.38730537e-02  8.12714472e-02 -8.44568610e-02
  -1.14408441e-01  3.16342749e-02  7.29156658e-02  4.06903140e-02
   4.24830131e-02 -3.88633311e-02 -2.26169806e-02  6.28199754e-03
  -2.90885251e-02 -4.36616130e-02 -4.28373227e-03  3.52958180e-02
  -7.71219376e-03  6.05498329e-02 -2.38381326e-02 -7.10088573e-03
   2.20096968e-02 -1.17867410e-01  8.86476114e-02  1.31419584e-01
   2.73352295e-01 -2.20872201e-02  3.44422609e-02 -3.74604538e-02
  -1.08367652e-01 -3.94945629e-02 -5.82262985e-02 -1.46008395e-02]
 [-1.80977322e-02  1.51398790e-03 -3.94583084e-02 -2.83789001e-02
  -5.80200031e-02 -7.47223105e-03 -1.02589525e-01 -2.17232220e-02
   2.97779944e-02  8.60156119e-02  1.39819337e-02 -2.67489523e-01
  -5.57033196e-02 -4.84426543e-02  1.65093139e-01 -1.39361992e-01
   3.78378220e-02 -5.19600883e-02 -1.04775816e-01  6.18067719e-02
  -6.66792244e-02 -5.55069512e-03  1.49570154e-02 -4.45699133e-02
  -4.71295342e-02  5.07940166e-03  1.26975015e-01 -2.43385173e-02
  -4.38241325e-02  9.34089255e-03  2.05757301e-02 -1.63429901e-02
  -3.53059880e-02 -6.80638477e-02 -5.23639023e-02 -5.28607331e-02
  -5.66963889e-02 -1.87811740e-02  6.01795129e-02 -2.74682306e-02
  -5.87161481e-02 -1.48803070e-02 -5.20347841e-02 -4.29028040e-03
   3.16028148e-02  8.45791399e-02 -5.83187267e-02 -3.58491801e-02
  -4.19027656e-02 -5.60905226e-02 -4.49102418e-03 -5.38559742e-02
  -1.30019721e-03 -3.46602872e-03  1.10923246e-01  7.68074915e-02
  -7.71246711e-03  5.79928560e-03 -1.97532368e-04 -1.56491774e-03
  -4.88275401e-02  3.67717296e-02 -1.43605396e-01  2.01465953e-02
  -9.72678699e-03 -5.27060479e-02  1.08266264e-01 -1.42551549e-02
   1.16297394e-01 -1.37761965e-01  2.30376408e-01  5.52565381e-02
   1.70546234e-01 -2.55655825e-01  5.83275855e-02  6.39095604e-02
  -4.03470658e-02 -8.15439895e-02 -5.26268557e-02  1.28857745e-02
  -7.74232522e-02  3.81281003e-02  9.42440554e-02  2.29423791e-02
   9.96089913e-03 -6.11324310e-02  1.13351932e-02 -8.05725809e-03
   8.85814521e-03  5.27364798e-02 -1.79585237e-02  3.79413404e-02
  -4.63177450e-02 -4.52145515e-03 -2.04259306e-02  4.64878120e-02
  -3.35029699e-02 -3.56421969e-03  2.79818296e-01 -3.37248854e-02
  -5.47401840e-04 -1.62024249e-03  5.43812178e-02  5.99151012e-03
  -2.83505172e-01  2.96659432e-02 -4.59053144e-02 -6.00167271e-03
  -2.22030669e-01 -1.91016926e-03  1.37445796e-02 -8.25275294e-03
   4.01526364e-03 -3.13754082e-02  2.03487426e-01  7.37123005e-03
  -5.83671313e-03 -1.88007221e-01  2.42162589e-02 -1.90591570e-02
   1.25032905e-02 -1.16039835e-01 -3.31458747e-02  2.02092901e-02
  -8.15976597e-03 -2.79496983e-02 -1.04576916e-01  4.44873385e-02]
 [-3.28426026e-02 -4.96597812e-02  2.02265140e-02  5.44974096e-02
  -1.29086720e-02 -8.78318027e-02  5.02672456e-02  3.93180642e-03
  -6.40433580e-02 -1.00713260e-01 -2.73389854e-02 -7.57378489e-02
  -9.93867442e-02  3.15206572e-02 -7.69824982e-02 -1.59713715e-01
   1.68544427e-02 -6.42301813e-02 -1.14206806e-01  3.04458477e-02
  -2.60877877e-01 -4.09828350e-02 -2.29947597e-01 -8.63761008e-02
   3.88005003e-02 -3.98477837e-02  8.93315300e-02 -2.61636451e-02
  -1.69624053e-02 -4.46669161e-02  3.16306315e-02  8.02728161e-03
   8.44205450e-03  8.62433240e-02  2.64703110e-02 -6.32594293e-03
  -6.63709417e-02 -1.83994807e-02  2.40461573e-01  3.63574773e-02
  -2.64469907e-03 -6.35840511e-03 -3.65619436e-02 -5.23534715e-02
   1.50918335e-01  7.72672892e-02  7.60699585e-02 -6.03735000e-02
   1.94301829e-01  7.51086399e-02 -4.29167375e-02  1.64325610e-02
  -5.02786674e-02  1.85586885e-02 -6.04358502e-03  1.25424489e-01
   4.21508700e-02 -2.20236816e-02 -1.03428317e-02 -2.65668072e-02
   3.51775363e-02  5.36389649e-02 -6.65850565e-02 -5.72443977e-02
   3.98705713e-02 -4.66090776e-02  1.51239157e-01 -7.02740578e-03
   1.10902727e-01 -7.84340501e-02 -9.50718448e-02  1.70657694e-01
  -1.18842661e-01  1.49480961e-02 -2.91536078e-02 -2.68689655e-02
   9.39022191e-03 -6.01053536e-02 -3.10394555e-01  6.62452802e-02
  -3.79644185e-02 -5.67395166e-02 -2.77170893e-02  5.30086551e-03
  -4.77139167e-02 -5.04227020e-02 -2.65347995e-02  6.85966536e-02
   1.63298771e-01 -1.24005973e-02 -7.55223930e-02 -1.62503168e-01
   1.72955811e-01  1.43993655e-02 -3.88462618e-02  5.20936586e-02
  -5.35116345e-03  3.80691923e-02  7.58685917e-02  4.31718342e-02
  -1.01261131e-01  1.27300546e-02 -5.02893440e-02  4.14030105e-02
  -9.14570838e-02  5.59856892e-02  4.12096977e-02 -2.42369175e-02
  -2.66519845e-01 -5.44614978e-02 -2.10182890e-02 -6.37211427e-02
   3.63250002e-02  1.45895127e-02 -9.13625881e-02 -3.68132107e-02
  -4.69945446e-02 -5.16432524e-01 -1.46129385e-01 -9.03049633e-02
  -1.27093658e-01  4.27624844e-02  1.57382321e-02 -1.82293449e-02
   1.83637083e-01 -1.63495168e-02 -1.55118644e-01 -4.73556370e-02]
 [-4.38551232e-02 -2.86160875e-02 -1.56081663e-02 -7.63591826e-02
   3.02491598e-02 -3.95561121e-02 -1.46663785e-01  2.96303295e-02
  -6.94742724e-02  6.39341176e-02 -7.74962157e-02  9.67997760e-02
   8.10194761e-03  1.20234666e-02  6.73293769e-02 -1.66300282e-01
   3.94453704e-02  1.66392215e-02 -1.20971866e-01  7.56326038e-03
  -4.93188947e-03 -6.35912791e-02  1.62811220e-01  6.03926741e-02
  -1.57427713e-02 -6.63210824e-02  1.31761640e-01 -2.93678138e-02
   2.68370043e-02 -8.01436454e-02 -3.09290215e-02 -2.91162878e-02
  -7.13459253e-02  5.99939488e-02  1.89250987e-02 -9.66008827e-02
  -3.91426310e-03  1.28970249e-02 -6.15311638e-02 -6.87134045e-04
  -3.97156589e-02 -5.63125573e-02 -1.04793869e-02  1.45265926e-02
   1.59004569e-01  3.38794813e-02  9.27818194e-02  7.58476332e-02
  -2.87891403e-02  3.87147479e-02 -1.45433005e-02  4.13527042e-02
  -7.48065934e-02 -7.11941859e-03  7.55485371e-02  4.53952327e-02
   5.54572232e-03  4.53762598e-02 -8.93693641e-02 -3.40792090e-02
   2.29343232e-02  8.49826559e-02  1.09659001e-01 -4.14349400e-02
  -4.96646874e-02 -7.78994039e-02 -9.68971029e-02  1.39567712e-02
   4.71951365e-02 -1.58823375e-02  1.46701336e-01 -1.24153867e-01
   6.85798228e-02  9.72850546e-02  9.80910957e-02 -9.74073261e-02
  -4.93267551e-02 -5.54416981e-03  1.37428552e-01 -5.13519794e-02
  -3.34223174e-03 -1.66141316e-02 -4.49951440e-02  1.14930004e-01
  -1.13936141e-02  6.22005388e-02 -9.67046395e-02 -6.86354935e-02
  -6.60663322e-02 -1.31921312e-02 -4.47602160e-02 -3.68709181e-04
  -4.75183576e-02 -8.78912359e-02 -8.48946422e-02  2.38721666e-04
   8.05670209e-03  1.82466079e-02  1.49731845e-01  1.24283843e-02
  -2.02467740e-02 -1.27469283e-02  9.96680930e-03 -4.91159931e-02
  -3.76950689e-02  3.02927345e-02  1.93334632e-02 -7.16365352e-02
  -6.50143623e-02 -3.66085619e-02 -1.85362715e-02  1.23797236e-02
   1.42264999e-02 -2.67691687e-02  1.65572166e-02  9.28823603e-04
  -7.94951469e-02  1.48796067e-01  8.19122866e-02  2.56826058e-02
  -1.15057384e-03  1.04517683e-01 -3.71009707e-02 -5.18001802e-02
   1.19695812e-01 -5.02501652e-02  7.93479979e-02  1.02937398e-02]
 [ 5.59559688e-02 -4.66850549e-02  2.19447576e-02  3.98555771e-02
   1.96982026e-02  5.34715503e-03 -1.85499750e-02 -6.86352327e-03
  -2.41448432e-02  1.46276057e-01 -4.35323790e-02 -2.14113787e-01
   2.42547497e-01  5.38527593e-02 -1.77409306e-01  5.02663490e-04
   3.80727910e-02  1.28895175e-02  1.23689905e-01 -5.94221726e-02
   1.37011200e-01 -1.82159618e-02  1.06331795e-01 -5.22894599e-02
  -2.43985690e-02  5.59057444e-02 -3.85809630e-01  6.61066398e-02
   4.27939519e-02  3.95103656e-02 -8.30456708e-03 -1.97918359e-02
  -4.13308702e-02  1.85547292e-01  1.76629424e-02 -1.64053030e-02
  -3.80294845e-02  9.53739509e-03 -3.94840896e-01  2.97169238e-02
   4.23076376e-02  4.72362861e-02 -1.73310041e-02 -1.83267891e-03
   1.71536263e-02 -4.14402932e-02 -2.28546947e-01  8.31728578e-02
  -1.05881654e-01 -1.32682901e-02  4.24881428e-02 -1.03679635e-02
  -5.71465306e-02  5.88465407e-02  5.26186042e-02 -2.57978112e-01
  -3.23871821e-02 -3.07225902e-02  5.04288822e-04  8.09413195e-03
  -1.65733360e-02 -2.52850652e-01 -1.76082730e-01  2.84770653e-02
   1.62330568e-02  3.58482823e-02  3.08735743e-02 -2.71754339e-02
  -2.10807055e-01  6.47587236e-03  5.52730188e-02 -3.75418067e-02
   9.07621309e-02  2.40950733e-01 -7.00303167e-02 -4.51755598e-02
   5.45261428e-02 -3.32031143e-03  2.11935014e-01 -3.02488711e-02
  -6.00063130e-02  2.96645239e-02 -1.14797950e-01 -3.66638571e-01
  -4.69423831e-05  5.13852201e-02  5.99193713e-03 -1.25546455e-02
   1.74702153e-01  2.73965206e-02 -2.19619535e-02 -1.27776742e-01
   1.44030219e-02  3.15845534e-02 -3.03407684e-02 -5.56862131e-02
  -2.61296369e-02  2.41418481e-02 -2.81248391e-01  1.96161792e-02
  -3.09463143e-01  2.20775455e-02  3.97633240e-02  2.73355469e-02
  -4.61440086e-02  4.96143401e-02 -5.33818193e-02  1.41305965e-03
   2.54886900e-03 -6.92071319e-02 -6.34104982e-02 -1.10676400e-02
   5.04444987e-02  4.31011170e-02  2.68633693e-01  5.44574261e-02
  -5.80119714e-02 -2.02146426e-01  1.49442926e-01  7.38837570e-02
   5.76367714e-02 -1.66807011e-01  4.06370498e-02 -1.41130909e-02
  -1.00326553e-01 -5.11514992e-02  4.00747284e-02 -9.14179161e-03]
 [-4.31585386e-02 -4.79075462e-02 -3.80854160e-02 -1.59323367e-03
  -1.55913280e-02 -4.77372371e-02  3.59689109e-02  1.66223217e-02
  -4.36694846e-02  1.15702208e-02 -6.44449592e-02  1.40556306e-01
  -1.74919534e-02 -5.20177931e-02 -5.09124398e-02  4.96887490e-02
   1.72481928e-02  5.48137203e-02 -9.90623012e-02 -3.35678458e-02
   5.60311181e-03 -3.50540760e-03  2.20788360e-01 -1.10998191e-02
  -1.93939134e-02  7.24851992e-03 -3.78817581e-02  7.84340035e-03
  -5.53908525e-03 -2.30978429e-02 -5.87084815e-02  1.79071110e-02
  -2.92691961e-02  2.56650951e-02 -1.86364688e-02  3.32784578e-02
   5.15198782e-02 -5.32408170e-02  1.06869556e-01 -5.46034761e-02
   3.30797657e-02 -4.92309928e-02  4.64674160e-02 -5.83599927e-03
   5.87527864e-02  2.98982430e-02  8.57967418e-03  7.65398378e-03
  -6.53567389e-02  2.45620776e-02 -5.32947592e-02 -6.28407896e-02
  -4.56266217e-02  2.25262456e-02 -6.03169575e-03 -1.05992462e-02
   2.47725584e-02  5.15143722e-02  2.01029517e-02 -2.26909146e-02
   2.75599770e-02 -1.05303759e-02  2.43407059e-02 -4.56190631e-02
  -5.74522279e-02 -3.04968152e-02  6.66062012e-02 -4.80615348e-03
  -1.15970843e-01 -9.51151550e-02  1.13390863e-01  1.50920972e-01
  -4.96419519e-02  1.57099456e-01 -8.41652453e-02  1.85702831e-01
   3.48070078e-02  7.16947466e-02 -5.94014265e-02  6.06712233e-03
   1.65785886e-02  1.53194424e-02  4.35261428e-02 -1.50899976e-01
   2.65871268e-02  3.20888422e-02  1.90018695e-02  5.58274612e-03
  -9.31096077e-03 -6.30464777e-02 -5.67931533e-02 -2.71342602e-02
  -7.39164650e-02 -2.20708158e-02  2.20063515e-02 -1.40174516e-02
  -1.21329278e-02 -3.47016059e-04 -6.08039573e-02  7.03905011e-03
   2.75165942e-02 -9.16273966e-02 -3.77236679e-02  4.24330458e-02
  -1.79808691e-01  7.53543759e-03 -5.70219643e-02  2.83868536e-02
  -1.02568164e-01  6.60017133e-03 -9.00217611e-03 -3.46338749e-02
  -1.17582064e-02 -2.42907871e-02 -6.19267896e-02  3.53952982e-02
   1.25940414e-02 -2.45415404e-01  1.01233602e-01 -3.89617421e-02
  -6.43525422e-02  1.46043766e-03  2.95607075e-02  3.23706977e-02
   5.73732667e-02  4.25652899e-02  7.82850757e-02 -6.57105725e-03]
 [ 9.50688869e-03 -7.21757635e-02  1.15625188e-02 -2.49910764e-02
  -8.24641138e-02  9.06778276e-02 -1.16587682e-02  1.07560474e-02
  -6.28916696e-02 -5.68851130e-03 -3.78562883e-02 -3.64242017e-01
  -1.40320528e-02 -5.56267239e-02 -1.70092676e-02 -7.30005875e-02
  -3.46328840e-02  3.80053073e-02  8.19368474e-03 -8.38819742e-02
  -3.24041456e-01 -8.68951082e-02 -2.47624237e-02  4.68639672e-01
  -9.86103714e-02  1.13543384e-02 -9.12962630e-02  1.75641656e-01
  -4.71876562e-02  8.23420472e-03 -2.58178706e-03 -6.64302707e-03
  -1.70242228e-02  2.77915955e-01  1.27099711e-03  2.31244583e-02
  -5.01761436e-02 -8.22672527e-03 -8.50710347e-02  7.37242252e-02
  -3.77325937e-02  7.89109524e-03 -2.71704253e-02  1.29491547e-02
   2.99441457e-01  1.34651333e-01 -2.42504209e-01  1.25384424e-02
  -8.14586654e-02 -5.00811264e-02 -7.01588690e-02  4.55083661e-02
  -3.10492478e-02 -7.01293573e-02 -9.79813933e-03 -1.59655243e-01
  -3.47303711e-02 -1.19452076e-02 -7.84495100e-02 -5.41051105e-02
  -1.78003293e-02  4.17508855e-02  9.67643112e-02  1.95963234e-02
   8.47065300e-02 -4.92701493e-02  1.59969509e-01  5.81701621e-02
  -2.03070059e-01 -5.34826256e-02  1.59322813e-01 -1.87852710e-01
   1.66097194e-01 -2.28916079e-01  6.53822348e-02 -2.19811182e-02
  -5.35827428e-02 -1.60334632e-01 -2.14934364e-01 -4.95462231e-02
  -4.95117940e-02  1.15676954e-01 -5.00327870e-02 -6.40677884e-02
  -2.80130636e-02 -1.02740258e-01 -3.41560617e-02 -9.14543271e-02
  -4.32792231e-02  2.94789150e-02  2.52209436e-02 -2.89690625e-02
  -1.95759177e-01  2.03230940e-02 -6.29184768e-02 -7.97821581e-02
  -2.29201540e-02 -3.94249149e-02  1.97304770e-01 -2.33366899e-02
  -8.15912783e-02 -5.69897816e-02  8.25567245e-02  2.74635758e-02
  -7.51951188e-02 -5.11056334e-02  1.73174608e-02  4.38747443e-02
  -1.49748459e-01 -4.75910194e-02  1.54960742e-02  4.44726869e-02
  -9.04430263e-03 -4.87645306e-02  2.08866268e-01 -3.47273871e-02
  -4.73908614e-03 -8.55122730e-02  4.51230228e-01  1.37557805e-01
   1.21477291e-01  8.73095095e-02 -4.85396981e-02  7.13197049e-03
  -2.21754819e-01 -6.37618303e-02  5.04533499e-02 -4.94052330e-03]
 [ 1.72178407e-05  4.78319377e-02  1.24112908e-02 -5.01587912e-02
  -1.08519010e-02 -1.12623632e-01 -8.23205113e-02  2.30011269e-02
   4.91738096e-02  9.90448818e-02  2.14295909e-02 -2.93724179e-01
   6.95492104e-02 -3.28989439e-02  1.80076152e-01 -1.64416671e-01
   3.42515372e-02 -3.55110019e-02 -2.88363695e-02 -1.15325330e-02
   8.35589096e-02 -2.57742777e-02  1.91181572e-03 -8.65681469e-02
  -6.77693412e-02 -1.82572026e-02 -1.50943920e-01 -5.65401427e-02
   3.85909751e-02  2.33277474e-02 -6.89456463e-02 -3.72417197e-02
   6.89803017e-03 -3.13879065e-02  2.34475099e-02  1.37928734e-02
  -7.78694972e-02 -2.65411530e-02  1.57533616e-01 -4.48286682e-02
  -8.95532547e-04 -2.36119218e-02  1.23554207e-01  5.16530275e-02
  -7.49715939e-02  5.03887609e-02  2.86032587e-01  2.48185378e-02
  -7.46362507e-02 -2.46665366e-02 -5.75014092e-02  3.49529199e-02
   1.25330891e-02  5.02088591e-02  1.24811128e-01 -2.19920836e-02
   2.18209121e-02  4.13644761e-02 -5.79079464e-02  3.51916142e-02
   3.15863686e-03 -1.68329135e-01 -2.75947988e-01 -2.45185141e-02
  -3.78811806e-02  9.25366767e-03  9.26434398e-02 -6.82615042e-02
   1.34881824e-01 -1.16587415e-01 -4.37068008e-03 -5.59698939e-02
   1.36164740e-01 -1.15041025e-01 -6.91921413e-02 -7.87860751e-02
  -2.25008279e-02 -1.48544461e-01 -1.82144061e-01  2.78940629e-02
  -3.28260697e-02  1.63484409e-01 -8.92606154e-02  3.68095115e-02
  -3.04748509e-02  5.00548957e-03 -3.65711674e-02 -3.39119509e-02
  -4.84062135e-02 -6.01083711e-02 -3.04949172e-02 -1.35883465e-01
  -7.78221786e-02 -5.60161807e-02 -5.51643483e-02 -4.09196541e-02
   1.56568345e-02 -2.20963247e-02  2.95904726e-02 -5.40452078e-02
  -2.77238786e-01 -5.16090393e-02  2.58945897e-02 -5.53087071e-02
  -1.14500180e-01 -8.72339401e-03 -3.82417813e-02 -1.20752500e-02
  -8.46668482e-02 -1.61947776e-02 -8.73900503e-02  1.71996672e-02
   4.87770364e-02 -5.17756678e-02 -1.49458751e-01 -4.75015640e-02
  -1.32124769e-02 -6.67357296e-02 -4.58353236e-02  9.34772380e-03
   1.13823831e-01  2.68961862e-02 -4.38425019e-02 -5.81929982e-02
   1.15935177e-01 -7.10733160e-02 -1.67887419e-01  2.14439109e-02]
 [-2.64153387e-02 -4.00031991e-02  3.55077907e-02  6.32680804e-02
   1.94964111e-02 -1.18444294e-01  9.34175625e-02 -1.38862859e-02
   5.22757992e-02 -1.21977210e-01  4.15264517e-02 -1.85524359e-01
   6.79082945e-02  3.21863145e-02 -2.72798240e-01 -2.05977038e-01
  -3.63417566e-02 -3.08923032e-02 -7.52072334e-02 -3.06778718e-02
  -3.89405251e-01  2.05605328e-02 -2.89550692e-01 -5.55708110e-02
  -6.79916665e-02 -7.47930035e-02  2.45922118e-01  2.27243856e-01
   1.70550197e-02  7.43047968e-02  3.39445285e-02 -4.86154333e-02
   4.18137386e-03 -3.70316207e-02  3.65989730e-02  2.14859601e-02
   1.28891831e-02 -5.53560108e-02  1.42615959e-01  2.58023534e-02
   3.36857960e-02 -6.78052800e-03  4.73770797e-02  2.02392172e-02
   6.39981627e-02  9.85861868e-02 -4.27604243e-02 -9.66817960e-02
   1.33026034e-01  6.09233649e-03  5.97418994e-02 -1.60350055e-02
  -7.03441873e-02 -3.62568349e-02 -9.59112495e-02 -1.77377820e-01
   3.59406099e-02  2.09787162e-03 -2.69732997e-03  3.72376814e-02
  -6.34677485e-02  1.14763435e-02  5.62397670e-03 -4.46265377e-02
   3.18612419e-02  1.78354457e-02  2.68381447e-01  2.76133101e-02
  -8.71594846e-02  3.58089944e-03 -8.46199468e-02  3.14798385e-01
  -9.78543535e-02 -9.21365321e-02 -1.20626790e-02  5.64975031e-02
  -1.62558928e-02  6.70289900e-03 -2.42886901e-01  1.39764538e-02
  -2.59905346e-02  3.17783877e-02  5.36285080e-02  1.68942556e-01
  -5.05819917e-04 -1.72023773e-02  5.71591631e-02  8.08497071e-02
   4.35430221e-02 -5.96698299e-02 -2.12974995e-02 -1.42679572e-01
   9.03590322e-02  3.88014205e-02  5.11700213e-02  7.65377954e-02
  -2.05241665e-02  6.18566945e-02 -2.69331515e-01  2.09400356e-02
  -6.93744719e-02 -5.52533343e-02 -5.13874106e-02 -2.54654475e-02
  -3.00369505e-02 -1.99341811e-02  2.65892670e-02 -2.04953142e-02
  -4.07781810e-01  4.92397649e-03 -2.13874388e-03 -6.65255785e-02
   2.81267590e-03 -4.39354442e-02 -9.85863581e-02  2.99629867e-02
  -2.65246481e-02 -3.15659463e-01  1.36986524e-02 -9.23722088e-02
  -1.65413663e-01 -5.38801216e-02 -5.06774969e-02 -2.15284377e-02
  -1.12412861e-02 -1.51508730e-02 -2.89208330e-02 -2.74063721e-02]
 [-1.72874182e-02  2.51569059e-02 -2.92838644e-02  3.48957852e-02
  -6.04181513e-02 -4.09319252e-02 -3.32225040e-02 -3.72093990e-02
   1.13296155e-02 -5.76798022e-02 -1.30268531e-02  1.79021060e-01
   1.66756585e-02  3.56154022e-04  7.35863596e-02 -6.67439178e-02
  -2.97355615e-02 -1.10004342e-03  1.05878413e-01 -1.45214712e-02
   1.03340715e-01 -6.65157437e-02  1.15171164e-01  5.74674234e-02
   3.61921266e-02 -2.53884047e-02  5.96935935e-02 -4.27148156e-02
  -6.05139919e-02  6.50251983e-03  3.06776771e-03 -4.31821607e-02
  -8.19865381e-04  4.05819714e-02 -2.61388700e-02 -6.39640391e-02
  -7.52393343e-03 -8.79982859e-03 -2.87151989e-02 -4.63514477e-02
  -4.93233539e-02 -4.26994078e-02 -5.19384257e-02 -3.29448245e-02
   4.99752238e-02  4.11772244e-02  9.05868709e-02  1.28893377e-02
   5.15853912e-02 -5.49081229e-02 -2.67286431e-02 -1.93368737e-02
  -1.24553312e-02  3.14398594e-02  4.35828604e-03  1.25920415e-01
  -6.13522381e-02  7.96563085e-03 -1.01381354e-02 -2.96049844e-02
  -5.90946898e-02  6.97053820e-02  3.03300899e-02 -6.17166199e-02
  -5.40850237e-02 -4.05789837e-02 -4.21901979e-02  4.70976904e-03
   6.87772315e-03  3.69567634e-03  1.08837284e-01 -6.17309995e-02
   1.09194063e-01  4.16562892e-02  2.91705467e-02 -1.14805408e-01
  -3.08949985e-02 -3.88693586e-02  3.40338610e-02  3.79855968e-02
  -2.61040721e-02  8.15776661e-02 -2.84508746e-02  8.78552571e-02
   6.79386361e-03  2.88330093e-02 -1.63666755e-02 -5.73687442e-02
  -7.12598860e-02  3.29101793e-02 -6.73251599e-02  4.17790078e-02
  -3.78845148e-02 -9.63382795e-03 -1.60902925e-02 -7.29802996e-02
  -4.15104739e-02  6.59321714e-03  1.46189526e-01 -8.81371573e-02
   1.34061994e-02 -7.64485523e-02  1.02346167e-02 -3.10086589e-02
   3.30356322e-02  1.04155263e-03 -3.74075882e-02  1.33447824e-02
  -2.19032750e-03  1.03858598e-02  1.31948357e-02 -6.32388964e-02
   4.54394370e-02 -9.44380313e-02 -4.34245951e-02 -5.67813171e-03
  -7.02847615e-02  9.48292613e-02  8.30237344e-02 -9.99787599e-02
   3.66453938e-02  2.97665466e-02 -2.93231360e-03 -2.07229275e-02
   1.01401895e-01  2.80005950e-02  9.38609615e-02  6.50521368e-03]
 [ 2.74558514e-02 -2.28974558e-02 -3.99048626e-02  2.29216740e-02
  -1.52188614e-02 -3.91825698e-02 -9.15366560e-02  5.79690933e-03
  -2.42172852e-02  2.94284523e-01 -5.80710694e-02 -2.01099917e-01
   6.35607690e-02 -3.34208533e-02 -2.84555815e-02 -6.76901080e-03
  -5.04762381e-02 -3.33014838e-02  1.38224186e-02  3.37469415e-03
   9.66881514e-02 -1.62527040e-02  2.13091411e-02 -9.96975079e-02
   2.05329480e-03 -5.93619943e-02 -3.21554393e-01  1.56966671e-01
  -1.42193362e-02 -1.81040633e-02 -1.29659241e-02 -1.12385124e-01
   2.41585989e-02  1.02043435e-01 -2.24436447e-03  1.04825944e-04
   2.22585946e-02 -2.17606891e-02 -2.63680488e-01  1.63483545e-02
   5.52996248e-02  1.06574893e-02 -6.85798004e-02 -3.48456651e-02
  -1.05319440e-01  2.90353894e-01 -1.24333121e-01  1.78580657e-01
  -1.39806166e-01  4.90910280e-03  2.83494070e-02  3.27918082e-02
  -6.52410835e-03 -5.73455468e-02  8.32505971e-02 -3.56845558e-01
   5.48884273e-03  7.18907500e-03 -3.37002538e-02  3.95683050e-02
  -3.95933129e-02 -2.16117039e-01 -9.88081470e-02  5.39717153e-02
   2.10166946e-02 -2.82755308e-02  6.22945093e-02  2.26897746e-02
  -1.00118667e-01 -2.48148486e-01  1.81286573e-01  1.78468544e-02
  -2.37478483e-02  6.99943379e-02  8.40640441e-02 -8.22821781e-02
  -5.95142730e-02 -4.71428335e-02  3.16116542e-01  1.79205984e-02
   3.95732820e-02 -6.01775683e-02 -2.11417284e-02 -3.32128376e-01
  -2.06999108e-03  4.94714156e-02  8.24861974e-03  5.88851701e-03
  -5.36599085e-02  3.02765220e-02 -5.46940342e-02 -1.22290030e-01
   5.04107364e-02  7.36141205e-03 -3.04146279e-02 -1.67328827e-02
   3.00727189e-02 -2.40656994e-02 -1.58722043e-01 -2.64179576e-02
  -2.66709238e-01 -6.80397823e-02  4.60094102e-02  4.47665751e-02
   7.58622289e-02 -2.17776969e-02  3.33776325e-03  5.62139265e-02
  -1.01529500e-02 -4.54041436e-02  3.84702645e-02 -4.12304848e-02
  -3.91273499e-02 -2.63921041e-02  1.57146409e-01  3.69872898e-03
   5.29409796e-02 -2.66861379e-01  1.26187786e-01  4.15362231e-02
   1.08981907e-01 -2.90406346e-01 -2.70692445e-02 -5.50611392e-02
   3.76626812e-02  3.85657400e-02  2.64660090e-01  2.53225490e-02]
 [ 5.59369661e-03 -2.55947933e-02  1.71051137e-02 -6.27080351e-02
  -2.68730037e-02 -1.60817541e-02  4.80258204e-02  2.45294292e-02
  -1.11042194e-01  1.04812540e-01 -6.55666962e-02  8.08181800e-03
  -6.38784394e-02 -9.14329290e-03  2.00763028e-02 -6.49724305e-02
   1.87544432e-02  1.62327737e-02 -5.05541041e-02 -5.48207127e-02
  -1.33171901e-01 -5.68698011e-02  3.22753377e-02 -4.36668769e-02
  -9.35252085e-02 -2.90252957e-02 -3.50000411e-02 -9.74905267e-02
   5.24832085e-02 -1.74881667e-02  4.84545901e-03  8.28463957e-02
  -5.56105040e-02  9.56865624e-02 -1.91507395e-02 -2.97766384e-02
  -1.52213397e-02  4.24592458e-02  8.08290988e-02  2.90582217e-02
  -4.23575845e-03  1.98655650e-02  9.03692618e-02 -1.52700823e-02
   5.03003933e-02  1.21063426e-01  3.15730684e-02 -4.47344892e-02
   3.80501151e-02 -3.14232409e-02 -2.14694124e-02  1.52420802e-02
   3.26571660e-03  2.72436105e-02 -8.05294141e-02 -8.58926550e-02
  -1.14770643e-02 -6.00844845e-02  5.68835763e-03 -7.52410814e-02
   2.42763776e-02 -2.18172744e-02 -3.55850644e-02  3.04507613e-02
  -4.61507179e-02  1.55241136e-02  2.85333190e-02 -5.61164394e-02
  -1.73452660e-01 -6.93718717e-02  5.14661968e-02  1.38296008e-01
  -1.17476262e-01 -4.12039496e-02 -1.11940391e-01  8.97284523e-02
  -5.66040836e-02 -6.09133672e-03 -1.75162777e-01 -4.82262298e-02
  -2.71651633e-02  2.73777544e-02 -7.70326480e-02 -1.51548624e-01
  -3.23491804e-02  1.89513080e-02 -1.40735775e-03 -3.69232930e-02
   1.34822637e-01 -8.09895992e-03 -7.42655545e-02 -5.33241220e-03
  -1.10086463e-01 -2.59218868e-02  4.17241193e-02 -7.60806538e-03
  -7.46077672e-02  6.49969466e-03 -1.46699235e-01 -1.27494032e-03
  -4.59515676e-02  5.31337671e-02 -4.52334657e-02 -2.81440411e-02
  -1.57355800e-01 -3.59366019e-03 -1.27244387e-02 -7.62213767e-02
  -1.26734510e-01 -6.75848965e-03  5.42502701e-02  1.53291030e-02
  -5.74428588e-02 -4.22244594e-02  2.12338604e-02 -2.95996089e-02
   2.71621626e-02 -1.91166073e-01  9.52971950e-02 -6.48839846e-02
  -4.70535122e-02 -8.78667906e-02  3.10725085e-02 -5.55522591e-02
   6.27491474e-02 -4.67605293e-02  1.44588903e-01  2.51568053e-02]
 [-2.84019671e-02 -2.65978090e-02 -5.11937886e-02 -2.69278251e-02
  -3.46117318e-02  6.67555705e-02 -2.11287886e-02  4.20260578e-02
   2.00602785e-02 -3.30574214e-02 -6.02598675e-03 -3.59678864e-01
  -2.77912151e-02 -3.25309522e-02  4.87302616e-02 -9.08661038e-02
   4.20174785e-02 -4.66936128e-03  1.15858778e-01  5.61117455e-02
  -1.60855979e-01  8.34017619e-03  9.51582566e-03  2.74635494e-01
  -5.76322079e-02 -3.77075821e-02 -2.16467381e-01  1.39694158e-02
  -4.95442450e-02 -2.76989080e-02  8.56546313e-03 -1.14530884e-01
   1.70145854e-02  5.78230210e-02 -5.42944223e-02 -2.92352326e-02
  -7.80193834e-03 -1.19518396e-02  8.85144174e-02  7.60177430e-03
  -6.21672422e-02 -3.78236026e-02  6.47824258e-02  4.05271836e-02
   4.69544195e-02 -3.79995778e-02 -1.39262334e-01 -5.36726788e-02
  -5.81169985e-02 -2.14511268e-02 -1.99981779e-02 -9.36403871e-04
  -3.34002338e-02  2.41907313e-03 -9.59378630e-02  6.41396642e-02
  -1.74160488e-02  2.82857791e-02  8.71508557e-04  3.77088338e-02
  -9.87718627e-03  7.22184777e-02 -2.73671508e-01  1.30200721e-02
  -4.65470292e-02  2.11600028e-02 -5.52597232e-02 -3.33064646e-02
  -1.24788158e-01 -7.21542239e-02  1.09248096e-02  1.34007394e-01
  -1.66699756e-02 -1.12853035e-01 -5.82418451e-03 -8.34827311e-03
  -2.68534347e-02 -2.25075126e-01 -1.53904885e-01  1.43719399e-02
  -5.30937612e-02  1.10762931e-01 -8.88646543e-02  1.27630413e-01
  -5.72308078e-02 -2.10942104e-02  2.76515372e-02  5.48768230e-03
   1.20927341e-01 -3.96918617e-02 -3.84175852e-02 -1.00856885e-01
  -9.22666863e-02 -4.03552353e-02 -4.31058891e-02 -6.04551099e-02
  -4.93741482e-02  6.74922066e-03 -3.57400961e-02 -5.26339225e-02
   7.49090910e-02  7.41404807e-03 -1.90701429e-02  4.00750525e-02
  -2.65072316e-01 -7.28638051e-03  3.93758938e-02  6.57664910e-02
  -3.16992939e-01  1.92678813e-02 -3.36436778e-02  4.69331481e-02
  -2.86279265e-02 -6.31684437e-02  5.78577928e-02 -2.90804561e-02
  -6.82047829e-02 -1.66322038e-01  1.81453496e-01 -4.49366607e-02
   1.84363395e-01  1.28544793e-02 -3.11452392e-02  3.10423337e-02
  -5.37470588e-03 -2.11331435e-02 -3.93580794e-02  5.13369776e-02]
 [-1.65588278e-02 -7.78769478e-02 -6.79089054e-02 -1.01173343e-02
  -4.86505665e-02 -5.82240857e-02  6.01348653e-03  3.01733911e-02
  -7.48789459e-02 -1.66817918e-01 -2.76802536e-02 -2.42889166e-01
  -1.92083940e-01  2.36384571e-02  1.28271043e-01 -1.14302032e-01
  -4.04405966e-02  4.47670221e-02  2.25281045e-02  1.16931118e-01
   4.45660129e-02 -1.35794077e-02 -9.62692201e-02 -9.23325494e-02
  -3.41437384e-02 -7.09671676e-02  1.70992732e-01  5.14922999e-02
  -2.95375921e-02 -3.59775014e-02  1.61774494e-02 -2.31650355e-03
  -4.64169681e-02  5.86721562e-02 -2.28290986e-02 -2.89740320e-02
   3.05526163e-02 -3.93932126e-02  3.11743356e-02  4.86935340e-02
  -3.46425064e-02 -4.54782359e-02  1.02602862e-01 -1.52922329e-02
  -4.40127291e-02  6.92196190e-02  1.08122244e-01 -1.06397398e-01
   7.24343061e-02  2.58579310e-02 -2.45847255e-02  3.10562588e-02
   6.40242845e-02 -5.71807064e-02  4.85882871e-02  5.88650703e-02
   3.07382662e-02 -1.36426091e-02 -3.45542580e-02 -4.63008434e-02
   1.73952966e-03 -2.49360129e-01 -1.85421377e-01 -5.00618741e-02
  -3.16285272e-03 -4.17286828e-02  2.13418692e-01 -2.47853138e-02
  -1.24650180e-01 -2.30220288e-01  1.05673298e-01 -2.08270680e-02
   4.57779840e-02 -2.86774814e-01 -2.36002117e-01 -1.44559979e-01
  -7.06716850e-02 -2.72761788e-02 -1.33050546e-01 -3.99648435e-02
   1.85939651e-02  9.93674770e-02 -3.36619690e-02  1.96107794e-02
  -3.33302021e-02  1.00011811e-01  5.97661212e-02 -5.50559200e-02
   1.28392696e-01 -1.55199580e-02 -3.66384275e-02 -6.29364103e-02
  -2.63190836e-01  3.97710241e-02 -5.74244885e-03 -8.12773779e-03
  -5.93522973e-02 -3.74865830e-02  2.99310923e-01 -1.83576588e-02
   5.27640842e-02 -5.59230596e-02  1.43633154e-03 -4.69460376e-02
  -2.14674503e-01  4.09960300e-02 -3.69540416e-02  6.16217107e-02
  -2.41642594e-01 -3.61644700e-02  2.22904105e-02 -3.32452953e-02
   2.94531845e-02  2.22721547e-02 -1.17004648e-01 -1.97346974e-02
  -3.95377465e-02 -1.63275808e-01  3.07388067e-01 -4.85385768e-02
  -3.30345542e-03  1.31105602e-01  5.92992082e-03 -2.42504235e-02
  -1.48028731e-01  4.68363985e-02 -1.78962186e-01 -4.44637239e-02]
 [-3.25901024e-02  3.79336737e-02  7.38481618e-03 -6.31616935e-02
  -4.74755466e-02 -2.93583479e-02  5.71295433e-02 -6.24643676e-02
  -7.53922760e-02 -5.69479726e-02  5.63313998e-02 -1.53728634e-01
   1.02607124e-01 -1.35263484e-02 -6.54614121e-02 -2.78166495e-02
   3.85005139e-02  2.72011124e-02 -1.23067901e-01 -4.43846472e-02
  -2.64237553e-01 -1.43295862e-02 -1.82683766e-01 -3.03140469e-02
  -2.85205860e-02 -6.18612655e-02  1.39479309e-01  1.20722800e-01
   3.23432013e-02  2.18336936e-02 -5.51643483e-02  2.54005082e-02
  -3.37856333e-03 -3.04552913e-02  4.44266535e-02 -1.11737987e-02
  -4.42536473e-02  2.72507016e-02  1.60967726e-02  1.86400060e-02
   7.41223060e-03 -2.13651378e-02  6.91333693e-03  2.44625215e-03
   1.74686328e-01 -4.49709035e-02 -1.67389587e-02  6.70920685e-03
   2.28434615e-02  1.51396962e-02  1.47601236e-02 -2.84216031e-02
   1.30536053e-02  3.18888500e-02 -2.10797712e-02 -1.92596808e-01
  -2.92663518e-02 -3.32520716e-02  5.77558428e-02  9.27089900e-03
  -6.52946010e-02  8.17951411e-02  1.03640603e-02 -4.48658839e-02
  -3.25943194e-02 -5.94436973e-02  2.66488105e-01 -4.37452607e-02
  -1.51768789e-01  1.63061485e-01 -6.59840032e-02  3.18513699e-02
  -4.44321632e-02 -3.11154313e-02 -1.76877797e-01 -8.43546633e-03
   4.42779846e-02 -2.88254861e-02 -1.41538963e-01 -5.82607202e-02
   5.55078126e-02 -4.12657894e-02  1.06955133e-02 -1.12845033e-01
   1.10601261e-02  8.88832286e-03  6.84682205e-02  7.26572890e-03
   6.30706400e-02 -1.67163033e-02 -7.67733082e-02 -8.37668777e-02
  -1.31956348e-02 -1.61215046e-03  3.47926617e-02  6.26927540e-02
   4.78302687e-03  2.87096575e-02 -9.78141874e-02  8.05517752e-03
  -8.60947445e-02 -6.38252199e-02  3.54516692e-02 -6.31449148e-02
  -5.32344962e-03 -3.23722772e-02 -3.35672088e-02  4.77351472e-02
  -3.68964463e-01 -2.88500413e-02  6.37524528e-03  8.89529753e-03
  -4.11655679e-02 -8.67060125e-02 -8.11756104e-02 -1.74521338e-02
   5.23221195e-02 -2.95766711e-01 -4.67044599e-02 -7.67678395e-02
  -1.39212489e-01  1.07892193e-01  3.29090990e-02  4.49361578e-02
  -1.41561210e-01 -6.09971583e-02 -8.01166594e-02  2.47073546e-02]
 [-3.96599770e-02 -2.96449289e-02 -2.49018185e-02 -4.56984863e-02
   3.66649181e-02 -1.09725080e-01  9.55207646e-03 -3.31750675e-03
   8.27978626e-02  2.76591685e-02 -1.76248774e-02  1.28220215e-01
   3.89897823e-02 -3.66801657e-02  1.17495328e-01 -2.45004762e-02
   8.67003296e-03  5.67278229e-02 -9.04246792e-03 -1.49174547e-02
   3.55723128e-02  3.40878516e-02  2.03330070e-04 -1.12443948e-02
  -1.63117555e-04 -2.25394648e-02  6.04087189e-02 -2.59116888e-02
  -3.11784558e-02  3.52245420e-02 -3.92676331e-02  8.47235695e-03
  -4.52964529e-02 -3.19537916e-03 -5.68875186e-02 -4.87385988e-02
  -2.07481850e-02  1.96635295e-02 -6.87235221e-02 -3.26024033e-02
  -6.12749998e-03 -5.72167523e-02 -3.86595018e-02 -3.02733686e-02
   8.67019445e-02  4.85125780e-02  5.41611277e-02  7.05431551e-02
  -1.61824122e-01 -6.17436655e-02  8.70439166e-04  2.98085087e-03
  -1.77391395e-02  1.10689718e-02  2.80652698e-02  1.86022893e-01
   2.27321237e-02  2.48776693e-02 -4.84617390e-02  1.40495524e-02
   1.14146443e-02 -3.65378475e-03  7.18250126e-03  8.30654390e-05
  -2.80380044e-02 -6.57112449e-02  2.80885808e-02  3.97246331e-02
  -1.75255798e-02  7.96415284e-03  1.16763979e-01 -1.04829684e-01
   1.59861326e-01  1.21349148e-01 -1.34500396e-02 -1.51938811e-01
   8.84033740e-03  4.36857268e-02  8.25962871e-02 -1.04411654e-02
   3.46769616e-02 -2.36377604e-02 -7.63170272e-02  1.58246025e-01
  -5.44609241e-02 -3.46397399e-03 -3.64045165e-02 -1.60714344e-03
  -2.47321073e-02  1.23364115e-02 -6.62023798e-02  3.18306983e-02
   2.17119977e-02 -2.98744291e-02  2.33822409e-02  4.09234762e-02
   4.03680541e-02 -3.85493375e-02  1.33918688e-01  6.04842138e-03
  -1.22926701e-02 -8.51188898e-02 -2.44965740e-02  1.29594440e-02
   6.19493984e-02  1.03481617e-02 -4.55163196e-02 -7.70870075e-02
  -6.99304417e-02 -7.72295445e-02 -4.39005122e-02 -6.53302222e-02
  -5.51216267e-02 -1.22380024e-02 -6.05195276e-02 -5.86222671e-02
   2.73566674e-02  1.20266438e-01  9.13463309e-02 -3.86746749e-02
  -4.06849310e-02  7.80189037e-02  2.17819940e-02 -4.49009240e-02
   5.51115461e-02  3.99099849e-03  4.92785349e-02 -4.68561463e-02]
 [-4.78017479e-02  3.77599597e-02  1.64668057e-02 -5.82388863e-02
  -4.92013916e-02 -4.97117378e-02 -5.68973657e-04  5.69692925e-02
   2.65357699e-02  2.44597673e-01 -2.55937185e-02 -2.34097153e-01
  -2.16081720e-02 -1.71164349e-02 -8.93103927e-02  5.18010221e-02
   1.86787117e-02  4.66505140e-02 -4.37139766e-03  1.78433582e-02
   1.48918450e-01 -3.33916619e-02  7.71512417e-03 -8.72770548e-02
   1.29979085e-02  4.80741337e-02 -3.86087865e-01  2.37446174e-01
  -3.11083663e-02 -1.53811099e-02  3.56557891e-02 -2.66827401e-02
   1.63093396e-02  1.20496610e-02 -2.72914544e-02  3.99723426e-02
   7.97855109e-03 -4.83772792e-02 -1.18438877e-01  2.01657638e-02
  -2.86611617e-02 -3.98000553e-02 -2.89946422e-03 -3.23560275e-02
  -7.07796961e-02  2.76713639e-01  8.06991607e-02 -2.28162277e-02
  -1.55378684e-01 -3.89932021e-02  1.07819000e-02 -2.79591344e-02
  -1.00478679e-02 -4.61722091e-02  1.38594672e-01 -2.65485078e-01
  -2.49466710e-02  6.29423559e-02 -3.94638181e-02  5.63356429e-02
  -5.36547303e-02 -3.38182926e-01 -2.16663733e-01  2.42633000e-03
  -8.09872299e-02  1.88930929e-02  8.86352882e-02  5.38929924e-02
  -1.63168371e-01 -2.36874893e-01 -1.45550385e-01 -4.11127042e-03
   2.37019244e-03  1.42114565e-01  9.40278056e-04 -9.02200341e-02
  -1.16938772e-02  6.75923899e-02  2.39614502e-01  3.66240516e-02
   3.34610492e-02  1.53751642e-01 -1.51236355e-01 -2.88989365e-01
  -5.62660620e-02  3.73544134e-02 -1.44605618e-02  3.62192327e-03
   9.39165503e-02  1.24185206e-02 -3.66962478e-02 -8.97096321e-02
   2.76139341e-02  3.58921513e-02 -3.50614861e-02  4.40496355e-02
   5.43265045e-03 -1.76541656e-02 -2.65711665e-01 -5.17287031e-02
  -2.81888843e-01 -5.25931902e-02 -4.70357724e-02 -8.24981183e-03
   2.71054208e-02 -1.58077590e-02 -4.88252267e-02  2.05672402e-02
   2.28118692e-02 -2.88409218e-02  1.98609438e-02 -1.23637915e-03
   3.42302546e-02  3.29638571e-02 -1.28143970e-02  5.21743745e-02
  -3.19281742e-02 -2.47083932e-01  1.23361282e-01 -1.53892823e-02
   2.09688302e-02 -2.42240742e-01 -5.24615347e-02 -3.80775444e-02
   3.98519039e-02  4.96319756e-02  1.81500912e-01  4.40839455e-02]
 [-2.08977293e-02 -2.83640884e-02  1.39527461e-02 -8.94637257e-02
  -5.29624075e-02 -9.80321784e-03  9.51106776e-05  2.44474914e-02
  -5.80737926e-02  5.18427826e-02 -3.72355320e-02  3.32659930e-02
  -1.07975818e-01 -3.50726163e-03 -1.05257161e-01  5.39439265e-03
   7.40827527e-03  7.85547197e-02 -3.04207131e-02  5.50207496e-02
  -4.02348004e-02 -2.20334996e-03  1.22068834e-03 -6.83761388e-02
   1.18109277e-02 -4.49662581e-02  8.59873146e-02 -2.28917487e-02
   5.11862300e-02  1.10424645e-02 -7.75547791e-03 -1.03578093e-02
  -3.30695771e-02  1.71242319e-02 -1.94828510e-02 -3.16371806e-02
  -4.24129851e-02 -1.51401395e-02  8.92710090e-02 -3.40016074e-02
   3.25562842e-02 -6.51298910e-02  5.87912686e-02  3.04579064e-02
  -2.10694093e-02  3.73157822e-02 -7.25026578e-02  1.38969887e-02
   1.77040100e-02 -6.64783269e-02  1.21873254e-02  2.76221130e-02
  -8.39027837e-02  1.27045726e-02  3.13426629e-02 -1.35934323e-01
  -2.13360935e-02  5.42160086e-02 -6.94961622e-02 -5.00041544e-02
  -2.53652665e-03 -5.12442105e-02  1.12126358e-02 -4.69482224e-03
  -4.18958440e-02 -3.32487822e-02  2.12073736e-02  2.26190034e-02
  -4.23217416e-02  2.19377447e-02  3.51376198e-02  1.37161061e-01
  -4.41617407e-02  5.81998713e-02 -1.79259986e-01  5.79270273e-02
  -3.60034071e-02 -6.71962947e-02 -1.57415807e-01 -1.66473482e-02
   1.75835602e-02  1.04338452e-01 -4.11962271e-02 -1.61356360e-01
  -8.45163502e-03  3.78997438e-02 -6.33908585e-02  3.04411277e-02
   1.67576775e-01 -3.80636081e-02 -1.14547191e-02  1.67534389e-02
  -7.78583214e-02 -7.00566592e-03  9.44294594e-03 -2.10842267e-02
   3.31468023e-02  2.00075749e-02 -2.53344532e-02  3.75277251e-02
   1.30305022e-01 -5.85046932e-02 -1.19761447e-04 -5.39001636e-02
  -1.01838596e-01  5.41688986e-02 -5.23871779e-02 -9.91269723e-02
  -1.57461443e-03  1.36034703e-02  1.04179708e-02 -4.42379713e-02
  -3.78237851e-03 -8.39538798e-02 -1.10384244e-02 -7.36505762e-02
   5.24791926e-02 -2.54828215e-01  1.00109637e-01 -1.51822016e-01
  -1.39146615e-02 -4.61892486e-02  1.84916314e-02  4.14091013e-02
   3.29560935e-02  4.10388485e-02  1.06435716e-01 -4.45161425e-02]
 [-2.84767104e-03 -5.11661284e-02  2.05196831e-02  5.33113480e-02
  -5.29638529e-02  3.15679237e-02 -6.23992831e-02 -5.16447462e-02
  -8.82743392e-03  1.32715274e-02  2.97587197e-02 -5.46471238e-01
  -9.41787958e-02  4.89579476e-02 -7.72699565e-02 -6.49612993e-02
  -3.55207212e-02 -4.93656332e-03 -1.37355765e-02  8.35499838e-02
  -3.39335427e-02  2.00990327e-02 -1.56439960e-01  1.63408011e-01
  -3.74091342e-02  3.38250212e-02 -1.72307063e-02  3.55287269e-02
  -2.65437216e-02 -7.10738897e-02  3.54031883e-02  5.20588085e-02
  -3.94077711e-02  2.90333293e-02 -2.45095659e-02  1.38202179e-02
  -1.35850962e-02  1.37500828e-02  7.61400238e-02  3.85033037e-03
   1.20745711e-02 -4.11688089e-02  1.27420843e-01 -2.90497262e-02
  -3.84929180e-02  8.23237747e-02 -2.43703529e-01  1.18510738e-01
  -6.37136167e-03 -1.05395943e-01 -3.05057596e-03 -2.99938340e-02
   3.99595089e-02 -1.27276024e-02 -4.79404405e-02  2.03478169e-02
  -2.01825146e-02  2.19444409e-02 -3.07883997e-03 -4.60296683e-02
   3.77256684e-02 -1.16691381e-01 -1.47434443e-01 -6.22937158e-02
  -5.87095544e-02 -1.23363943e-03 -5.36287203e-02 -2.24093292e-02
  -1.37496337e-01 -1.44557571e-02  2.47065410e-01  1.67854577e-01
   1.02394670e-02 -9.77270082e-02 -4.44279872e-02 -4.92120124e-02
  -2.01370511e-02 -8.79064500e-02 -3.81560959e-02  2.93331165e-02
   2.94727553e-03  2.85610911e-02 -8.12406838e-02 -6.81489334e-02
  -8.17053206e-03 -3.99320312e-02  1.04162022e-02  1.30953729e-01
   4.70669046e-02  1.02820229e-02 -5.59980376e-03 -4.63150665e-02
  -8.88177678e-02  1.28195425e-02 -1.91922300e-02  1.45481527e-02
  -5.77508844e-03  3.61031070e-02  1.07579604e-01 -2.41522025e-02
  -2.17301100e-02  3.24162170e-02 -6.51442856e-02 -4.05039601e-02
  -4.34318900e-01 -1.03424303e-02  6.56522578e-03  1.23973273e-01
  -8.18463638e-02 -3.51795577e-03 -6.51424155e-02  4.14942466e-02
   6.47928705e-03 -7.23118410e-02  2.50016689e-01  6.10586628e-02
  -9.73895844e-03 -3.38205487e-01  1.74261793e-01 -1.12781912e-01
  -3.14283883e-03  1.79489359e-01  1.50723271e-02 -5.24195284e-02
   1.08957976e-01 -4.02936973e-02  3.33455741e-01 -6.05520383e-02]
 [ 1.33081842e-02 -3.46323662e-02  3.07112616e-02 -6.97533488e-02
  -3.38130668e-02 -7.31254462e-03 -5.39245382e-02 -4.35619727e-02
  -8.06752518e-02 -8.84588808e-02 -1.64195113e-02  1.06612340e-01
   9.80407372e-02 -3.20925489e-02  1.61628455e-01 -2.15976581e-01
  -4.76424806e-02 -2.56251749e-02  6.85513839e-02  3.02666184e-02
  -9.07179788e-02  5.09885438e-02 -2.15453468e-02 -1.05947755e-01
   2.78831413e-03 -1.34141548e-02  1.18160106e-01 -6.76749870e-02
   3.17379683e-02  6.62436197e-03 -6.18379973e-02  5.73615842e-02
  -7.10107684e-02 -9.40655395e-02 -4.34935354e-02 -2.55958922e-02
  -1.61834136e-02 -3.47849466e-02  6.80414587e-02  2.63249073e-02
  -4.92906310e-02 -1.74851250e-02  1.74295053e-01 -2.15389412e-02
   5.55942133e-02 -1.41495019e-02  1.51650354e-01 -6.23768792e-02
   1.85119018e-01 -1.22870430e-02  2.42945496e-02  2.50615329e-02
  -6.73733503e-02 -5.40073179e-02  3.45694385e-02  2.46781349e-01
  -3.55600752e-02 -5.84607525e-03  1.39038460e-02  9.23248567e-03
  -2.55791936e-02  4.37875316e-02  4.72101718e-02  2.56544817e-02
  -9.91135929e-03 -4.01546136e-02  3.89108777e-01  3.94264385e-02
   5.22979684e-02 -7.77266026e-02  3.41584198e-02  6.94947913e-02
  -3.80146950e-02 -3.13562155e-01 -6.30225837e-02 -2.97652036e-01
   2.59088222e-02 -7.36318007e-02 -1.07938975e-01  1.76187064e-02
  -1.64199397e-02  1.36234567e-01 -1.13790676e-01  1.04483694e-01
  -3.61934528e-02  2.29761694e-02  4.28241119e-02 -6.61214739e-02
  -1.47985578e-01 -3.98749597e-02 -5.36436178e-02 -2.55465567e-01
  -1.38909677e-02 -3.35816443e-02 -7.57713243e-02 -3.39297429e-02
   4.67249639e-02  4.76205498e-02  1.07817695e-01  2.55843680e-02
   5.37069254e-02  4.40215282e-02 -8.79119486e-02  3.03523336e-02
  -2.32501268e-01  3.63245308e-02 -7.36357272e-02 -2.48667914e-02
  -4.89651635e-02 -1.83722544e-02 -3.27512100e-02 -8.04031093e-04
  -3.05987485e-02 -6.20981213e-03 -1.44939438e-01 -3.51027958e-02
  -5.08255176e-02  3.53264101e-02  2.80410722e-02  1.38112098e-01
   1.62587330e-01  8.94684577e-04 -6.67685717e-02 -3.84246893e-02
  -1.30936559e-02  5.36672026e-03 -2.33937442e-01  4.03924026e-02]
 [-2.76767518e-02 -2.62047593e-02 -5.93616292e-02  2.53715552e-02
   5.84512949e-03 -3.38402800e-02  2.61754896e-02 -3.54184322e-02
   6.88567311e-02 -5.77552095e-02  1.02988109e-02 -1.03725635e-01
  -8.53514373e-02  1.72808897e-02 -1.72216058e-01 -1.48831801e-02
   4.53295223e-02 -7.51540111e-03  3.05463299e-02  3.09552327e-02
  -2.25374267e-01  2.08889842e-02 -3.08572590e-01 -2.12907996e-02
  -8.17764699e-02 -1.64902564e-02  3.15095596e-02  1.70603812e-01
  -1.60011649e-02 -4.04316261e-02 -1.31642157e-02  2.33297721e-02
  -1.98203381e-02 -1.32512584e-01  5.52333985e-03 -8.59335437e-02
  -2.07732990e-03 -5.56938117e-03  1.54270725e-02 -8.09257105e-02
  -1.60787143e-02  7.41172880e-02  3.93748954e-02 -3.06692384e-02
  -1.14462199e-02  7.08023384e-02  2.18224108e-01  7.54066482e-02
   2.00602561e-01  3.01128011e-02 -7.84579106e-03 -3.73683460e-02
  -1.01499110e-01  3.72593254e-02 -3.61329429e-02 -3.18588793e-01
   4.86339107e-02 -1.12991463e-02  3.26764882e-02 -3.42492089e-02
  -6.39979690e-02  6.85549602e-02  1.35400740e-03 -3.98976356e-03
   1.44500926e-03  3.84340212e-02  1.34714052e-01 -3.18431831e-03
  -4.98196762e-03 -3.24656852e-02 -2.62341619e-01 -2.93709040e-02
  -1.30990788e-01 -9.97958034e-02 -1.44212335e-01 -7.20451921e-02
  -3.75064090e-02  4.82148640e-02 -3.35993767e-01  4.18769754e-02
  -2.63130814e-02 -1.68332160e-02  2.98069455e-02  1.11686654e-01
  -3.90504673e-03 -5.69470935e-02 -4.37307991e-02 -2.82026157e-02
   1.53326899e-01 -1.83327924e-02 -6.67381734e-02  3.94533984e-02
   2.87748296e-02 -6.24340214e-02 -2.90450472e-02 -1.32798851e-02
  -4.79297824e-02  2.00725496e-02 -1.92511067e-01 -4.58194001e-04
  -2.63985425e-01 -7.55132288e-02  9.08718854e-02  4.75758314e-02
  -6.96421489e-02 -5.33799417e-02 -2.61503831e-03  5.89998402e-02
  -2.49585316e-01  3.28777283e-02 -1.76044125e-02  3.50535847e-02
  -1.63564812e-02 -3.51812541e-02 -6.89288303e-02 -3.39036137e-02
  -5.06857708e-02 -1.31657049e-01 -5.50011732e-02 -1.68689527e-02
   1.07161049e-02  3.26071754e-02 -5.67992330e-02  5.35987988e-02
  -1.70976758e-01 -2.67903749e-02 -1.04926214e-01  1.64212156e-02]
 [-6.06786236e-02 -6.18236139e-03 -2.69347150e-02 -7.61733279e-02
  -1.63761359e-02 -1.35342076e-01 -1.06452599e-01 -6.94308896e-03
  -1.69666372e-02  2.31544189e-02 -6.26673996e-02  9.33480412e-02
   1.08907586e-02 -4.95234095e-02  1.74406260e-01  1.97876859e-02
  -3.73695195e-02 -1.67808100e-03 -2.75504906e-02 -1.73836350e-01
   4.06384543e-02  9.95487068e-03  7.69445300e-02  2.14766711e-02
  -6.73474222e-02  1.96669493e-02  2.02877354e-02 -9.65491161e-02
   8.40178039e-03 -8.68616905e-03 -1.17686158e-02  3.57126258e-02
   6.30299887e-03  1.04750305e-01  4.11855504e-02 -4.07085791e-02
  -5.60157448e-02 -4.94018868e-02 -1.76212173e-02 -1.04736410e-01
   5.05585782e-02 -1.14673655e-02 -4.68028672e-02 -6.50546998e-02
   1.13488361e-01 -4.87240776e-03  3.60608436e-02  7.02746436e-02
  -2.05484312e-02 -2.03881022e-02 -3.45795043e-02  4.55054315e-03
  -5.99765815e-02 -5.07414453e-02  1.56217515e-02  2.67460555e-01
  -6.78133890e-02  1.88544877e-02 -1.81215294e-02 -7.69370049e-02
  -3.52738947e-02  1.87495966e-02  3.50869857e-02 -8.82845968e-02
   1.51026342e-02  9.74739250e-03  1.10456683e-01 -4.60720994e-02
   1.96175720e-03  8.67939517e-02  1.60318181e-01 -9.54808593e-02
   1.40487805e-01  7.50047937e-02  8.71640593e-02 -1.81546770e-02
   3.94309014e-02 -7.98990652e-02  6.44035339e-02  3.66121754e-02
   1.97921302e-02  6.99325278e-03 -5.05526736e-02  6.48055598e-02
   4.11877036e-02  5.42975143e-02 -7.49550853e-03 -1.05781026e-01
  -5.73892333e-02  1.45810703e-02 -6.91596642e-02  1.02632986e-02
   6.19617924e-02 -9.68869776e-04 -1.89718809e-02 -6.24899119e-02
  -3.21667083e-02 -2.10729353e-02  1.55652300e-01 -5.96469231e-02
   5.49246483e-02 -7.29027316e-02 -1.12994000e-01 -7.71602690e-02
   5.73924296e-02  4.18932624e-02 -2.89922673e-02 -1.50649473e-02
  -3.51410881e-02  1.20545505e-02  2.95028482e-02 -3.57703567e-02
  -7.54640326e-02 -3.27222310e-02  2.60569286e-02 -6.85394406e-02
  -8.41136947e-02  1.09002627e-01  1.12166712e-02 -3.43366079e-02
  -8.04107413e-02  7.28691369e-02 -1.12339500e-02  1.95437688e-02
   7.92893246e-02 -6.71301549e-03  4.41995123e-03  2.58309245e-02]
 [-3.53194065e-02  3.09413690e-02 -2.74860840e-02 -1.74466800e-02
  -1.33436769e-02  3.00757289e-02 -5.10836728e-02 -1.59184970e-02
   2.25841552e-02  3.33436847e-01  3.13353986e-02 -3.40301067e-01
  -7.50333294e-02  5.89877293e-02 -8.32786560e-02  5.61754517e-02
   2.53349934e-02  3.82805476e-03  8.05942342e-02 -4.28244546e-02
   1.11944087e-01  4.93044034e-02 -8.76313448e-02 -1.94412261e-01
   1.08490244e-01  1.30953416e-02 -3.35731268e-01  7.89556745e-03
